602 100
的 -0.0030358976 0.004452456 -0.001689746 0.00057315413 -0.00057339575 0.0029746469 0.0022777424 0.0002461071 -0.0034074835 -0.0012857756 -0.00438328 0.0012141962 -0.0020628565 -0.0005946863 -0.0037887841 -0.0035840385 0.0047160224 -0.0016685043 -0.004577628 -0.004588019 0.0052608405 0.002242917 -0.00235213 0.004300338 0.003164169 0.0044611366 0.0029454518 -0.0033470148 -0.0010532407 -0.0043033264 -0.004944586 0.0031982714 -0.000904914 0.0027491592 -0.0009706581 0.000627564 0.0019865565 0.0036815961 -0.003738678 -0.00033228076 0.0021466329 -0.0042493134 0.0024248403 0.0011273437 0.00087782013 -0.002317509 0.0053110057 0.0028000406 -0.0002239165 0.0033554642 0.00012224325 -0.00069725997 0.00023653232 -0.0039937207 0.0021062305 0.003408488 0.0036102014 0.0037514274 -0.0025355048 0.0026334159 0.00045204075 -0.00047585237 0.0037289613 -0.00092350936 0.0047675306 0.003206783 0.0015320962 -0.0049216608 -0.0032310751 -0.0015144182 0.0029390212 -0.0008144691 0.0018448246 -0.00022493661 -0.0041366396 -0.00034856008 0.0055490565 -0.003314611 0.0023435145 0.00095719687 -0.00063294487 0.0011115189 0.00062531675 -0.003672609 -0.0024640025 -0.0050882064 0.003952875 0.0030427028 0.0049567744 -0.0032323839 -0.0020390619 0.002951996 -0.004850717 -0.0034561001 0.0021821556 -0.0029813368 0.0017628019 0.00065213273 0.0025209705 -0.0033395435
了 0.0030076134 -0.0045086043 0.0005345654 -0.0005911397 -0.003815176 8.19862e-05 -0.0030965873 -0.0024593568 -0.004530006 -0.003903223 -0.004714721 0.004653397 0.0028245368 0.0027983994 -0.00056813785 -0.004876727 0.002579955 0.003460799 0.0020824557 0.0020920814 0.0042644073 0.0014218244 0.0043819738 0.0007034344 -0.0003361091 0.0031874885 -0.0039479854 0.0021043431 0.0027945985 -0.0025706894 -0.0019312061 -0.0029839347 0.0028791144 0.00027358957 -0.001441081 -0.0035199083 -0.0039911726 -0.0036578379 0.0010806103 0.001315335 -0.0015315692 0.0021033683 -0.004036013 -0.0020010064 0.0016022001 9.861907e-05 -0.004182558 0.0026146062 -0.0037648468 0.0051251836 0.004020884 0.0047630793 0.003592121 0.0041274894 -0.0013337941 0.00016551353 0.0021491009 0.0033705235 -0.00035572192 0.00033292142 0.0022277825 0.00446904 0.0013682147 0.00074829406 0.0040639397 -0.0008683924 -0.0008678265 -0.0035599698 -0.003337367 0.002653221 0.0024580504 0.0035409958 0.002007973 0.0018670484 -0.003808947 -0.0036030246 -0.0042690462 -0.004316879 -0.0006191672 -0.0034192982 0.0005535812 -0.0032400566 0.0030500703 -0.004089603 0.0042058537 -0.0019901672 0.0044757705 0.0044655264 0.0014001091 0.00013023056 -0.0045527807 0.0033743675 -0.0048366175 -0.0035348989 0.0041743712 -0.0025990028 -0.0009300855 -0.0041567083 -0.003952819 -0.0026784043
是 -0.0033511505 -0.004217957 0.001338248 -0.0034581586 -0.0018814373 0.0034672902 0.005047452 0.0047929483 -0.00035592768 0.0032910064 -0.0029047283 -0.0032661739 -0.0024572143 0.003467233 -0.0031915614 -0.0037634708 0.0039146594 -0.0043511055 -0.0043517426 -0.0050685373 -0.0026611404 -0.004780586 -0.0048976075 -0.0041529285 0.0028646453 -0.00022410812 -0.0021596486 -0.003730146 0.0018986377 0.0042945263 -0.0016777426 -0.0033917255 -0.004396598 -0.0038912783 -0.0022048051 0.004658834 0.00046768525 0.004639045 -0.0042275554 0.00033082545 -0.00030652457 -0.0019459511 -0.00056150183 -0.0017363512 -0.0021397308 -0.004781772 -0.00068687066 -0.004002485 0.003138099 -0.0018248021 -0.0044504246 -0.0036062102 0.0049557565 -0.00071446295 0.003431151 0.0032362018 0.003446215 0.0025193307 -0.004254003 0.001063182 0.0023350471 -0.0044545806 -0.00083548814 0.001774676 -0.0022817247 -0.0025453626 -0.0009694125 0.00045726853 0.00045721396 0.0032311964 0.00028189775 -0.00018345373 0.0034548729 -0.0044112722 0.0023246207 -0.004888158 0.0041103614 0.00023541304 -0.0049731163 0.0044954075 0.002800385 -0.0021378745 0.0020207874 -0.00045272685 0.003820376 -0.0015030196 -0.0038088043 0.00031222875 0.002028523 -0.0028975916 0.0011174051 -0.003978528 -0.0006093192 0.002132341 0.0022782916 -0.0043687043 -0.004256756 0.0039228722 -0.0035573023 0.0004231154
韩寒 -0.0006755319 0.0049383566 0.00042867707 -0.004691972 0.0021279943 -0.0010541551 0.00245866 -0.00487731 -0.001274253 0.0044346764 -0.0044350903 0.0013298106 0.00092425774 0.0020027899 -0.0025719067 -0.00055025576 -0.0041015716 -0.0012345976 0.0031700046 -0.0015101561 0.00016728442 0.00056692556 -0.0026146434 0.0017623083 -0.002962801 -0.00346364 0.00027389586 -0.0036676268 0.0029367853 0.0018036292 -0.0050112745 -0.0001408874 0.0033434485 0.0028392645 0.0005604283 -0.0029996475 0.0018750002 0.0009751158 -0.00022187708 0.0035473634 -0.0020492969 -0.0013705489 -0.0048101717 -0.0015955723 -0.0027230429 -0.00014053778 -0.0033796665 -0.0032531912 -0.0036537906 0.004214657 0.0049364823 -0.0014759132 0.0010622755 -0.00020438008 0.0030343584 0.004796921 -0.00408484 -0.0018811704 -0.0024674605 0.0027031007 -0.004032101 -0.004151315 0.0011752564 -0.004623704 -0.0037368166 -0.0009985758 0.0011046182 0.002755831 0.0045971777 -0.004746756 0.0024380367 -0.0039997078 0.0033550146 -0.0039328663 -0.0028908032 0.0008416355 -0.0014815473 0.001935801 -1.1661456e-05 -0.0046036993 0.0031878534 0.0032235691 0.0046331594 0.0030441848 -0.00037162652 0.0037711228 0.0039938255 0.0044827764 1.7316039e-05 -0.0049614627 -0.0015736478 0.0035870543 -0.001925077 -0.0035059957 -0.0015496043 -9.842082e-05 -0.0044536884 0.0030360906 -0.0051954 -0.0015438141
电影 0.0049860734 -0.00036518628 -0.0017745475 -0.0012240526 -0.0038395168 -0.000822508 0.0029043476 0.00023275834 -0.00032906767 0.0033806153 -0.0026909586 -0.0026418096 0.0015090299 -0.001180927 -0.002912111 -0.0040646624 0.002213818 0.0009096719 0.0045601404 -0.002617146 0.0029460997 -0.0034371575 0.00016788491 0.004955225 0.0039883563 0.0018679895 -0.004085421 -0.00034192548 -0.0025343774 0.0026050261 0.0007097114 0.0020094395 -0.0009317277 0.0014159345 0.0006483311 0.0027064434 0.0016413762 0.0035651238 -0.0045995964 0.0009784849 0.0027984646 0.0015540407 0.000752869 0.0022087598 0.0025676738 -0.00061878574 0.0032594122 -0.00072027376 -0.004336016 0.005119208 -0.002691033 0.003592605 0.005232535 -0.0036684396 0.004315152 0.00015177585 0.0011948571 -0.004046383 0.0036020784 -0.004203025 -0.0049353656 0.0004169592 0.0043636956 0.0035603435 0.00046567462 -0.0010376022 0.0036948733 -0.0034030387 0.0020034895 0.003251145 -0.0036696098 -0.0016311967 -0.002071763 0.003482839 -0.00161758 0.0026027295 -0.0022927385 0.0016770707 -0.003332826 0.0013703809 -0.00029558552 -0.0020529875 0.004801513 -0.0015211803 -0.0045539807 -0.0042526913 -0.003057076 0.0032103658 0.0021455379 0.0033743177 -0.0011664632 0.002537092 0.0016688674 -0.003741226 0.003401989 0.0017401061 0.0037342703 2.9270795e-05 0.0041579264 0.00090346247
我 0.0012330023 0.0023559262 0.0008677611 -0.0023927297 0.0022234337 -0.0042860135 -0.00406186 0.003475869 5.929268e-05 -0.00048536135 0.0025758287 -0.0021139965 0.0050112177 -0.002195477 0.0004028586 0.0014459029 -0.0013622341 -0.0025383662 -0.0026086632 0.0005139834 -0.0009080062 -0.0035601084 -0.0027052993 0.004571163 0.003835637 -0.004061572 -0.0022109393 -0.003872483 0.0012161414 0.0031549549 -0.00459929 0.0041343765 0.0034037977 0.004073858 0.0039708386 0.0045239506 0.002570262 -0.0006775928 0.001126842 -0.00287782 -0.00032918545 0.004029597 0.0013553108 -0.00046560567 -0.0043113222 0.002060581 0.0017956512 -0.003509531 -0.0048706923 0.00086382957 -0.003941641 -0.004877055 0.004283168 0.004209334 0.0023104681 0.0037555539 0.0035297123 0.0028978426 0.0037028964 0.00082234497 -0.0047982754 -0.0025847657 0.003943884 0.002166367 -0.00036751846 -0.0019736881 -0.0008199827 0.0028598793 -0.00057429617 -0.0030077281 -0.00056910707 -0.0042761606 -0.0017149417 0.0017146477 0.0009985298 -0.0018784512 0.0040880176 -0.00059829943 0.003686841 -0.0015918459 -0.005006351 -0.0046499716 0.004930219 -0.0016436959 -0.00505237 0.0011828507 -0.0036331085 -0.0048784204 0.0025456075 -0.004409273 0.00060299423 -0.00068927166 0.0018878059 -0.0009170837 0.0011652014 -0.0009919489 0.004177633 -0.003715845 -0.003740131 0.0029397807
在 -0.003628998 -0.00046015688 -0.004896389 -0.0038333915 0.00078382104 -0.004833843 0.0027333265 0.0037191953 -0.0038416544 -0.00283766 -0.0033970128 0.0018619451 -0.004097603 -0.0040901606 0.0024844662 -0.002862341 0.0018493613 -0.0043924768 -0.0014435147 -0.0029836213 -0.0015015221 0.0022810954 0.0015939007 -0.004797554 0.0031339815 0.0050041364 -0.0047369166 -0.0029566837 0.0023981663 -0.00043561705 0.002344725 -0.00020335268 0.00359979 -0.004412679 0.00030626895 0.0031408248 8.1147504e-05 -0.0041870847 -0.0022687693 -0.0041361535 0.0048779463 -0.003932841 0.0015280612 0.002940766 0.0024351354 -0.0008730875 0.0051235124 -0.004825116 -0.0040408983 0.0013466415 -0.0033183154 4.6369503e-05 0.0025656866 -0.0019907414 0.0034043898 0.00051731966 -0.0032824005 -0.0018998969 0.003332168 -0.00038378226 0.0007475729 0.0042404067 0.003967818 0.0038794235 -0.0047581056 -0.0019548647 0.0010708619 -0.004699389 -0.0013564242 0.00019650634 0.00061451003 -0.0005775616 -0.0029533922 -0.0043351213 0.0033842032 0.001755753 0.00089315046 -0.003312015 -1.6790822e-05 0.00059410394 0.0032073075 -0.0028709727 0.0017642302 -0.0027796614 -0.0012125591 -0.0016649758 -0.0036226977 -0.0026195585 -0.0011671678 0.002251139 0.0050312458 -0.0007314835 -0.002084176 -0.0009830045 0.0009668687 -0.0012803025 -0.0045638545 -0.00094970677 0.004093039 -0.0014638805
和 -0.003061387 0.0023843516 0.0018131083 -0.003205903 -0.00046547936 0.0036281347 -0.0034400395 -0.0031129958 0.003989957 0.0017304844 0.0034467054 -0.0027393338 0.0011125852 -0.0006271229 -0.0006823242 -0.0020368143 -0.00023050825 -0.00013287886 0.00052498333 0.0034681482 0.004715048 -0.0009180698 -0.002884341 0.0030621814 -0.00014010258 -0.0025314814 -0.0049628974 0.0048477077 -0.0012505004 -0.0038209255 -0.0015518889 0.0050153867 -0.004308217 -0.0024186824 0.0031825923 0.004760552 -0.0046003694 -0.0030064736 0.0010954752 -0.0003225657 0.0018116205 -0.0031939961 0.0038784076 0.0016765873 -0.004739387 -0.0036083716 -0.0011998942 -0.00437843 0.0004835383 0.0022596272 -0.0005828925 -0.00094969466 0.0022152888 0.0035275922 -0.00024368697 -0.0045099896 0.0030005968 0.004130039 0.0015057864 0.0003799493 0.0011132018 -0.0020546822 0.0032507188 -0.0028121187 0.004080788 -0.0002643545 -0.00013249354 -0.0015463799 0.00202196 0.0033365784 0.0023921186 0.00422381 0.0038019866 -0.0044635697 -0.00011916036 -0.004392769 -0.0038920746 -0.002046167 -0.0031471488 0.0029747393 -0.0018907299 -0.0049091578 -0.0028450945 -0.0027028283 0.0018489169 0.0035194575 -0.0016500219 -0.0041214908 -0.0045984183 0.0024542285 0.00010220268 -0.0005949244 -0.004760831 -0.0008592214 0.0010651632 0.0014787398 0.0031087366 -0.0025286125 -0.0034629623 -7.0110735e-05
很 -0.0047391485 -0.0020717697 -0.003971781 -0.0003005496 0.0027127718 0.004097857 0.0050586574 0.0027668008 -0.0025273869 0.002230113 -0.0018191027 -0.0029276363 -0.0043981927 0.0019348913 -0.0049568918 -0.00495336 -0.002614926 0.002843586 -0.0003306297 0.0003411886 0.0045637935 0.0017311573 0.0026227937 0.00033272034 0.0020701038 -0.0015403987 0.0014579132 0.0022776914 0.0023420742 -0.0014810099 0.0011175292 0.0030009723 0.00042707552 0.00021800854 -0.0014916124 -0.0031135445 -0.0008553686 -0.0012856141 -0.0024825956 0.0015255748 0.0009226736 0.00224637 0.004486694 0.0019636895 -0.0007975229 -0.00067979406 0.003946861 -0.00071295985 -0.0020476468 0.0032160522 -0.004685551 0.003568403 -0.002180092 -0.00030273153 -0.0017218516 0.00014755457 0.001512928 -0.0002611465 -0.0041003255 -0.004555561 -0.0039839842 -0.0033894733 -0.0007758177 -0.002506878 -0.0026966108 0.0004423997 0.0015457728 -0.0014434707 -0.00026081997 0.002838292 -0.004328598 -0.001373638 -3.6956942e-05 -0.0029700454 0.0038429901 0.0033563913 0.004630114 0.0036741542 0.0031045212 0.00017097105 -0.0013514367 0.0024909787 -0.0012151259 -0.0034610874 -0.0035343114 0.0039602257 -0.0015770651 0.004404134 0.00075794273 -0.0013110361 -0.0017990738 -0.003674539 0.0033789936 0.0020826014 0.001007552 -0.0013175112 -0.0043293587 0.004183485 -0.0009451807 0.0047950367
看 0.0021946914 -0.0013572257 0.0004965513 -0.0010157782 0.004118236 -0.00093174406 0.00048080413 -0.0033870982 -0.0014782139 -0.004602482 -0.0038924152 0.00145146 0.0031937715 0.0004152008 -0.002334048 0.0033014347 -0.0045208004 -0.0037103037 0.001876663 0.0029937085 -0.0029855059 0.003139386 -0.001162241 2.4600602e-05 -0.0005608298 0.0044011376 -0.005013923 -0.0023974464 -0.0004963564 -0.002807643 -0.002590101 0.0046208864 -0.0044285017 -0.003321367 0.002633909 -0.0029601383 -0.0043120813 -0.0042608827 0.0006182515 0.0010734686 0.0001393715 -0.00040518207 0.0027220494 0.0018853105 -0.00061018177 -0.0031004199 0.0043775346 -0.0008551761 0.0030744702 0.0027467404 -0.0024174964 0.0017271247 0.0021734308 4.735204e-05 0.001971649 0.0022199894 0.003478084 -0.0014559636 -0.0014547025 0.00095385057 0.0022934128 -0.0017075277 0.004360724 0.001988816 -0.00060426816 -0.0019803038 -0.0036988405 0.0024442647 0.0043061054 0.0008140909 -0.00077576126 -0.0037806763 0.0016670127 0.001786557 4.6504196e-05 -0.0034416541 -0.0020200945 0.0028013997 0.0022723917 -0.004421526 0.00093299046 -0.003164209 0.00053133507 -0.0031461457 0.003713143 -0.004180335 -0.0042696353 -0.002110815 0.001192462 -0.003983105 -0.0019367066 -0.0040748552 -0.0012881286 0.003830962 0.00014727682 0.0032169304 -0.004759784 0.0045362934 -0.005112423 0.0030720928
他 -0.0034065943 -0.0016175914 -0.003916142 -0.0025910174 0.004675468 -0.0027647044 -0.0014238437 0.0025942114 0.004621302 -0.0009363875 -0.00404822 0.0016355399 -0.0007504441 0.0029531692 -0.0028304232 -0.0035093867 -0.0034061985 0.0023741347 0.0015656827 1.529993e-05 0.004144209 0.0026847904 -0.0023926995 -0.0019665852 1.7724917e-05 0.0048598438 -0.0012798076 0.0007472744 0.000104633145 0.0020529313 -0.0020396784 0.0015005622 0.0030552284 0.0033417642 0.0013064367 0.0028312698 0.0021342908 -0.0030856412 0.002998342 0.0042857155 -0.0014920607 0.0036611904 0.0035846862 0.003291684 0.0047097043 0.004195164 0.0011226233 -0.0009642905 -0.0031034441 -0.0031550901 0.003865223 0.001082772 0.002665843 -0.0019051504 -0.0042378902 0.0010649763 -0.0035971384 0.0050651715 -0.0031865377 0.0026965865 0.003364454 0.004388063 0.0007535381 -0.003473204 -0.001246609 0.0032785654 -0.0025333422 0.0027315973 -0.0035718132 -0.00018492214 0.0008669225 -0.0049671684 0.0026309597 0.0042853467 -0.0038058995 0.0011907755 0.004144762 0.00093048293 -0.0031590995 -0.0025818446 -0.004622332 -0.002722078 0.0010816812 -0.0037345667 -0.004195327 -0.0007522678 -0.003012519 -0.0039347573 -0.0029206031 -0.004047713 -0.0015280915 -0.0022854698 -0.0011172177 0.0020525842 0.0035439807 -8.796803e-05 0.0036685814 0.0021437465 7.150158e-05 -0.00343901
有 0.0036094228 0.0009150431 0.0033578295 0.0046300218 -0.0022968596 0.0026288957 0.0049328045 0.0040148953 0.0009250131 0.0006050634 0.0029003434 0.003475213 0.003054255 0.0048170364 -0.00310503 -0.00090885564 -0.004395452 -0.00023774676 -0.0036803717 0.0010220231 -0.00417521 0.0020305684 -0.004540742 -0.00022795598 0.0032073194 -0.004297872 0.00084259704 0.004556892 0.0014571009 0.0035593687 -0.0020537775 7.7538025e-06 0.003732454 0.00078666303 0.0036097756 -0.0006667279 0.0024922057 -0.00010279014 0.0038042467 0.0030481378 0.0008761806 -0.0018391468 -0.0041385475 -0.0037825766 -0.00086222624 0.0003498373 0.0033497824 0.002083808 -0.0008879329 0.001674566 0.00023363656 -0.0011342781 0.0019673947 -7.271865e-05 -0.004937696 0.005091489 0.0036525484 -0.0025939764 -0.0005936684 0.0014767228 -0.0011990542 0.0042459033 0.0036753833 -0.0035470861 -0.0030559637 -0.004884526 -0.004980274 0.00040263258 -0.00049341645 0.0045075356 -0.0039013012 -0.0006374879 -0.002243989 -0.0010386186 -0.003445873 0.0009310174 0.002152677 0.00451071 -0.0047970153 0.0032798478 -0.00066299643 -0.0011114447 0.004996968 0.004483935 0.0037197894 0.004427431 0.00043698825 0.0003942935 -0.00075713557 -0.00029373303 0.004997064 0.0012981454 -0.0026225038 0.002720873 -0.0029775808 0.0018557103 0.0028181584 0.00016408812 0.0033953108 -0.003889658
赛车 0.0049383035 -0.004613834 0.004035289 0.0030700746 -0.003914442 -0.0049093165 -0.002219311 -0.004711131 0.0015801163 -0.0038408989 0.0014743225 -5.7827732e-05 0.0023355288 -0.00038366832 -0.00068683433 -0.0035689506 -0.00048538233 0.0015301781 -0.0008670068 -0.0034818344 0.0024007633 -0.0033145966 -0.0029107207 -0.0007427372 0.0025026612 -0.0037005683 -0.0046973787 0.0025570097 -0.0023367736 0.0027853008 -0.00048677434 -0.0019234507 -0.0042760884 2.8969334e-05 -0.0020631969 -0.0019695947 0.004198065 -0.005054718 0.000465423 -0.0027720542 0.003295948 0.0043425523 -0.004024511 -0.0007551262 -0.0034679899 -0.0040037837 0.0038414367 0.0035346122 -0.0031367724 0.0013659347 0.0019732094 -0.00066963304 -0.00017031175 0.0041302075 -0.00072515564 -0.0033594274 0.00026780675 0.0019737158 0.00020769313 0.0030108728 0.0010038086 -0.0005286823 0.00054423726 -0.0028245635 0.0026240037 0.0014326741 0.0022264856 -0.00065325934 -0.0025868954 -0.0028140028 -0.004820398 -0.0012536413 0.0003658954 0.004666499 -0.0043413276 1.8588124e-05 -0.0031415364 0.0014307571 -0.004092868 -0.0007843929 -0.0026899013 -0.00392674 -0.0031293593 -0.003538583 -0.0009808432 -0.0041297716 -0.0022201885 0.0020259747 0.0026696764 0.00469289 -0.00055651995 0.0019809294 0.001280241 0.0038983983 0.0014504284 -4.103591e-05 0.0010719392 -0.0024619575 -0.003423945 -0.00089087134
人生 -0.0034668627 0.0009440625 -0.0035951103 -0.0033195177 0.003275455 -0.00368337 -0.00062004256 0.002414983 0.00069911353 -0.0035325794 -0.0048646503 -0.0019791338 0.004970376 -0.001053979 -0.0027904683 -0.0010728869 0.002905824 0.0028232485 -0.0029933362 0.0016423484 0.0011443427 0.004605754 -0.0025861058 -0.004625796 -0.0016113116 0.0003546289 -0.0014787163 0.0042052753 0.0035183155 -0.0015308446 0.0040148096 0.0041637956 -0.0012603131 0.00013979594 -0.004134871 -0.004002542 -8.629532e-05 -0.005013552 -0.00255628 0.004923557 0.0038700697 -0.002973643 0.0020344954 -0.00094440853 -0.0025349094 0.0038242126 0.0009315793 0.00045700537 0.003888504 0.0051808394 0.002954894 -0.0026511461 0.0042058486 -0.004403578 -0.0015210584 0.0029847007 -0.0041267136 -0.0017408957 -0.00178323 -0.003957031 -0.0041513476 0.0017873388 0.0013841935 -0.002885199 -0.0015879949 0.0030948783 0.00203921 -0.0033997113 0.0008190458 -0.0011569465 0.003011727 -0.0014161429 0.0035903372 0.0011570927 -4.711359e-05 0.0030503839 0.00037607292 0.0036697045 0.004601671 0.0017342246 0.0015009956 0.00070187915 0.0011167234 0.0033989914 -0.004236855 -0.0018172921 -0.0012899684 -0.001039928 0.0031359054 7.7292156e-05 0.00040405343 -0.004548552 0.0041812747 -0.0005022987 0.0022645087 0.0021492592 0.0008880636 -2.0190662e-05 -0.0016462685 -0.000912116
人 -0.0025955343 -0.0048374617 0.0039600637 0.0009974507 0.0029848937 0.004593942 0.0033112708 0.0037809138 0.0033418457 -0.002498493 0.004292769 -0.0023692702 -0.0044948575 -0.004576622 0.0025524436 5.563061e-05 0.004789312 -0.0032077574 0.0026413277 0.0010225301 -0.0023066092 -0.0020638334 0.00454719 -0.0026703582 0.005042383 0.00039413475 0.0014615473 -0.004970326 0.0027196326 -0.0011810933 -0.0008923761 -0.0039245198 -0.0015532079 0.00024512006 -0.0013400344 0.00338457 -0.0027722693 0.0038452311 -0.0040743896 0.0034538459 0.004743594 0.004859723 -0.004194795 0.0032288027 -0.003942824 0.004775812 -0.0038539495 -0.0022247066 -0.0036667394 -0.000329743 0.004063581 -0.00076044665 0.004408256 -0.00028195293 0.0020397983 -0.0011580242 -0.0012043586 -0.0008339638 -0.0033210441 -0.0014939944 0.0042125066 -0.003878897 -0.00024355947 -0.0044997022 0.0041363533 0.0024919794 -0.0036747542 0.0032089455 0.0015814371 0.004107565 -0.0017139412 0.0042646155 -0.002649957 -0.001913114 -0.004824764 0.0035349848 0.0048809443 -1.7957273e-05 0.0024055634 0.0041275867 -0.0006357714 -0.0016007263 0.0022330622 0.0027229374 0.002455008 0.0013837467 -0.0038968718 -0.004651064 -0.0010056486 0.00080583955 0.002066813 -0.0038571556 -0.0050891824 -0.001233866 0.0018601356 0.0042954343 -0.00084487634 0.0018336935 -0.0014859643 0.0018927935
都 -0.004938794 -0.0018733483 0.0046499483 0.00034576908 -0.0033989276 -0.0031602508 0.002173741 0.0018246033 -0.00015418201 -0.00248054 0.0025996664 0.0036567599 0.0018798348 0.00343682 0.0021255051 0.0011847233 0.0003021226 0.0011668527 -0.003199722 0.0026497373 0.0022430413 -0.0018452219 -0.0018202754 -0.0008566351 0.0011245831 -0.00010093315 0.00015120771 0.0048638457 -0.0021152832 0.0010230982 -1.9413194e-05 0.0032208217 -0.0016780208 0.0012808155 -0.00026066718 -0.0041154833 -0.00050013943 0.00039933715 -0.0049311942 0.001887272 0.0023285917 0.0032529426 0.0025997036 0.0007483131 -0.004315438 0.0034465068 0.004291139 0.00026212426 0.0031039782 0.0027137825 -0.0037980133 -0.0003524944 0.0030741799 0.001547848 -0.0034695016 -0.0042529413 -0.0031333866 -0.00030109237 -0.0012492215 0.003527922 -0.00072034507 -0.0011412406 0.0029893238 0.0018622607 0.0009652495 0.001979216 0.0031485574 0.004680938 -0.0010437568 0.004081016 0.0026611616 0.001985969 -0.0023413925 0.004978309 -0.0031564946 0.003877353 -0.0017681004 0.004812358 0.0023583972 0.0016245104 -0.0018134179 0.0018805749 0.0029502138 0.0007239629 -0.00030259325 0.00090161175 -0.002238384 0.0020108286 -0.00485982 7.703155e-05 -0.00042713637 0.0031676018 -0.00010979393 -0.002573642 0.0024022737 0.001810127 -0.0040125907 -0.0014713492 -0.0007454408 -0.0035119483
笑 -0.0016048405 0.0033383784 0.0013056432 0.003970995 0.0027471816 -0.004513765 0.0010517632 -4.7077006e-05 -0.0015241948 0.004167646 0.002851168 -0.0051629907 0.00022163315 -0.00085143704 0.0007455269 -0.0037483992 0.00272594 0.0029605594 -0.0009829933 0.0030886077 -0.0032248856 0.0013795963 -0.00073711044 -0.0040456774 0.0021507714 -2.7763408e-05 0.0038848398 0.00401385 0.0014707482 0.0038963875 0.004006685 -0.0017405067 0.0015163779 -0.0049081445 0.001570786 0.0031633289 -0.00243893 0.0027419499 -3.7569298e-05 0.0036846243 -0.0016650208 -0.0022888323 -0.0022206244 0.0017317997 0.00042972364 0.0032459744 -0.0035101532 -6.915161e-05 -0.001419537 0.0006176834 0.0010347541 0.0025506425 -0.00063326524 0.0034490144 -0.0014283918 -9.490012e-06 -0.0027897535 0.0018216224 0.002940171 -0.0014986276 0.0030250072 -0.0047633634 -0.0023800223 0.0032172159 -0.002153523 0.004812517 -0.00079425087 -0.00011272599 -7.7377354e-07 0.004765427 -0.0020524133 0.00069972896 0.0025502902 0.0043211575 -0.0003496764 0.0027364392 0.0042440477 -0.0018310953 -0.0010523146 -0.0033066657 -0.0015383947 -0.0007259741 0.0001516949 0.003372305 -0.002594362 -0.00032913763 -0.0014033861 -0.0045702728 0.0038427839 -0.0028210566 -0.0039839824 -0.00331866 -0.00031648297 -0.0044719502 -0.0023695452 0.0048857895 0.004929956 -0.00093586475 -0.0016960579 0.0006211455
但 -0.0023431035 -0.0044367253 -0.0036090764 0.0026772572 -0.0033941343 -0.00499839 0.003408974 0.0012511039 0.0018887662 -0.00049282593 -0.002824604 -0.004818696 -0.0025813458 -0.0049415245 0.00040261957 -0.0035558306 -0.0011554442 0.003016718 -0.0028390526 -0.0023718285 0.005061757 -0.0038244154 -0.0044218837 -0.004587864 0.0036590989 0.0023103952 0.0032372216 -0.0035201749 -0.00010668065 0.0029199482 0.0022125402 -0.003374493 -0.0010581878 -0.000643063 -0.0012505512 -0.0024088442 -0.004159423 0.0022749554 -0.001464045 -0.0032899382 0.00049721997 -0.003878052 0.0049718064 -0.00028144484 -0.00141826 0.0013506297 0.004339763 -0.0010053503 -0.0001969155 0.0037571124 -0.001301287 0.003759909 -0.0019284851 0.00014214034 0.0014009004 -0.00074997585 0.0018516438 -0.0010697684 -0.00047572423 -0.003865398 0.00059195317 -0.0028961801 0.0044458937 0.003909694 -0.0015950577 -0.0044909064 -0.00081775605 0.0035970684 -0.0028980705 0.004050509 -0.0030101342 -0.0048840074 -0.0019777748 -0.00028952232 -0.0021362393 0.0020019505 -0.0016777408 -0.0048943367 0.0042373547 -0.004609285 -0.004609488 -0.0044917427 0.0017426223 0.0008921699 -0.0048519024 0.0008093638 0.00012056038 -0.0043771453 -0.0020238312 -0.00095493655 0.0041807494 -0.0027419843 0.0016811936 -0.004335901 -0.004241354 -0.0013058274 -0.0045093624 -0.004809125 0.0034586526 -0.0016926181
就是 -0.0046432046 7.046528e-06 -0.0017286575 -0.0048723123 0.00048668578 -0.0021360053 -0.0027143452 0.0024334523 -0.0009688439 -0.0012233735 0.0030355297 0.0014991658 0.004136181 0.0036885203 -0.004123383 0.001893031 0.0048569646 0.0046519963 0.0034262622 0.0020815593 0.0053237206 0.00092179293 -0.00042054587 -0.0037833403 0.0024705178 0.0028015727 0.0027965398 -0.0034449503 0.004739553 0.0023352855 -0.004294596 0.0013246706 -0.005033159 0.00096738106 -0.0005358703 -0.0007470122 0.0047628614 0.0037285108 0.001278783 0.0037909627 0.0006194595 0.0026720809 -0.0017081411 0.0021117828 -0.004449335 0.0011506772 -0.002265334 -0.0021728703 -0.0028681739 -0.00074926903 -0.0046685673 0.0020935417 -0.0025631227 -0.0014735146 0.0021412626 -0.0008848543 0.0048202225 0.0040792045 -0.0026427112 -0.0029204665 -0.0018857603 0.002731678 -0.0027499173 0.0035006374 0.00244112 -0.0013579538 -0.0020789194 -0.0048367963 0.004481034 -0.003299801 0.0009370928 -0.0003651493 -0.0034396772 0.0034577872 0.001608626 -0.0021225363 0.0033064722 -0.0003720723 0.0037046238 -0.0014630884 0.0031968993 -0.00095814146 0.0018108898 0.004185557 -0.00018683118 -0.0006374087 -0.0019612007 -0.00012428184 0.004514936 -0.0040761475 0.0020040069 -0.0023500195 0.00016045506 -0.0041783443 0.004400331 -0.0007868888 0.0006732051 0.0025399104 -0.0010195251 -0.001351186
喜欢 0.0019317345 0.002545225 -0.002400181 -0.004060412 0.002608287 -0.0007393846 0.00014111123 -0.0021239829 0.0017167827 -0.0034462335 -0.004051275 -0.0014506585 0.003462992 -0.0021204597 -0.0035541093 -0.0025617944 0.0016589797 -0.001388037 0.0024615305 -0.0036541307 -0.00043282422 0.00010214805 -0.0023685142 -0.0035356008 -0.002709737 0.0011769504 -0.00017256821 -0.0006117838 -0.00041499396 -0.0031054537 0.00017161174 0.0031125005 0.0032380333 0.004976111 -0.0008673139 0.004737429 0.001778519 -0.0020471162 -0.0016193144 -0.0010852958 0.0010425003 -0.003952068 0.00035740528 0.0024218606 -0.0013923271 0.0027560962 -0.0036480536 -0.00022789152 0.002811148 -0.00245664 0.004727427 0.0005394047 0.0021581738 -0.00046756648 0.0017272468 0.0028094216 -0.0025182657 -0.0038180742 -0.00025018738 -0.0034106604 -0.0017719348 -0.004201247 0.0018637101 0.0018982745 0.0024142868 -0.004419848 0.0021944316 -0.0019971714 -0.0040643676 0.004804098 -0.0016388437 -0.002648588 0.0014862285 -0.0046767844 0.0027997307 0.0021133223 -0.0040720366 0.0005778556 0.00034449095 -0.0038815364 -0.003287278 -0.0028174755 0.004710237 -0.0033398033 0.004290994 -0.002064488 0.0014826029 0.0012876162 0.0022548416 0.0028931587 0.0023811932 0.0029303455 -0.0030648676 -0.004549077 0.0047657476 0.0048570507 0.004173973 0.0005297118 0.0015840129 0.00012972933
沈腾 -0.0018030226 0.0015012828 -0.0034999568 0.0002544635 0.002930866 -0.003368445 0.0011450357 -0.00029277784 -0.0014039669 0.002944763 0.0019803764 -0.0013089143 -0.002278196 0.002579443 0.004015305 -0.0005475074 0.003826985 -0.0032412445 -0.00046571507 -0.0019409498 -0.0041827755 -0.0033597297 0.00023560495 -2.7929662e-05 0.003072239 0.0025023003 0.004922431 0.004063469 0.00063274766 -0.0019212733 0.003108746 0.0012349916 0.004028571 0.0011540215 -0.00084899704 -0.00245345 -0.0013103308 0.0030140642 0.00036390818 0.00073152565 -0.0037584861 -0.0015821396 0.0006710175 -0.0017165951 0.0034102742 -0.003883359 -0.00048092855 0.0040960703 -0.00035133367 0.0032461497 -0.0030175569 -0.0012378222 0.0032442713 0.0010043912 0.0022625416 0.0045177066 -0.0035114645 -0.0011148214 0.0021934102 0.003529299 0.0023584599 -0.0011455627 0.0012904112 -0.00041394267 -0.0041747103 0.0012179213 -0.002224562 -0.002394651 0.0030793613 0.0010203539 0.0013987458 -0.0036985625 -0.003958488 0.0018635722 0.001572305 0.003031885 -0.0010162886 0.00048779513 0.0034887944 -0.0017492926 -0.00059092254 -0.0010351423 -0.0032833323 0.0008862453 0.0032508154 -0.0018898554 -0.0029691863 0.002343125 -0.0036878483 0.003910312 -0.004360419 -9.376206e-05 -0.003425495 -0.005051941 -0.0011941012 -0.0033802763 0.0017737773 -0.0020399473 -0.0026185762 -0.002676233
黄景 -5.67595e-05 -0.00217215 -0.00070255704 1.3692195e-05 0.0033432047 -0.005064546 0.003269466 0.0025443109 -0.004825758 -0.0025498518 0.0020976702 -0.004692595 -0.0017401305 0.004195113 7.3908115e-05 -0.0015833962 -0.00194698 -0.0018104117 0.003635768 -0.00013071873 0.0032862984 -0.0013917034 -0.00080979336 0.0040900204 -0.00035970236 -0.0019006367 -0.0028593838 -0.0027892916 -0.0015058174 -0.0033307674 0.004682749 0.0029933497 -0.005033526 0.0009918675 -0.0016953892 -0.000836531 0.00456344 0.0018584464 -0.004778561 0.0025766334 0.0048147812 0.0020119664 0.003343336 -0.004028434 0.0028210937 -0.00360892 -0.001646145 -0.00043036728 0.0005142269 0.0020204424 0.0045720665 -0.0049933465 0.004662316 -0.0043100654 0.0010878885 -0.004379394 -0.003866461 -0.0044548986 -0.003081283 0.0032980784 -0.0007448901 -0.0026935383 -0.002330647 -0.0031765078 -0.0048442073 0.0034200219 0.0024694656 -0.004088201 0.001840061 0.00027013195 -0.00040891935 -0.00067188544 -0.0014057859 -0.00020809505 -0.0017580683 0.001220895 0.004547716 0.0037280703 0.0018762271 0.003048516 0.0015970616 -0.0008856107 -0.0035667745 0.00096708 -0.002500271 0.0007918375 -0.0013523005 -0.0012484238 0.0015873525 -0.00074319233 0.0038923493 0.0001654724 0.0013076575 -0.0043764277 -0.0042907093 0.0006009646 0.0030473953 -0.0047222227 -0.0036475246 1.9179934e-05
好 -0.0006621502 0.004234622 0.0049959486 -0.00070441456 0.0017683055 -0.0019653977 0.0021531146 -0.0026590757 -0.0015648848 -0.00034949847 -0.004837699 0.0008853763 -0.0040288894 -0.0045415903 0.00033035944 0.0023526137 0.0031866399 0.0019347456 -0.0041274517 -8.226808e-06 0.0049268953 -0.0024588804 0.002536279 -0.0033042487 0.0052378764 -0.0044873306 0.00034829383 0.0023366553 0.004579573 0.0029231429 -0.0046597905 -0.0039021363 -0.0006100054 0.00047895484 -0.003406421 0.0017575548 -0.0028566918 0.00089931424 0.004083778 -0.0022344936 4.9209157e-06 -0.00082170824 -0.0034252007 0.0023854196 0.0040637297 0.0020226196 0.0042627607 -0.0025469058 -0.0042391745 0.0028731215 0.0013545353 0.0039934367 0.0026328245 0.0042144945 0.0033350165 0.001393819 -0.0010055825 0.0017464999 0.0024393382 -0.0039114873 0.0036031553 0.0015700036 0.0004937462 -0.0012813797 -0.0012748117 -0.0032391266 0.00021429516 -0.004716731 0.0011402189 -6.007409e-05 -0.0015361469 0.004455004 -0.0031038118 0.0013477295 -0.0013931809 -0.0016718423 -0.00082599587 5.1601924e-05 1.1790299e-05 -0.0013189476 -1.4927705e-05 -0.0018496814 -0.0025295303 0.0040943534 -0.004390056 0.00342431 0.0019332936 0.0032380612 -0.0044073253 -0.0034974436 0.003352976 0.0035957065 0.0015047599 -0.005139864 -0.0027950662 0.0044044154 0.0039764536 0.0047547384 -0.0017387295 0.0034902564
热爱 -0.0010967955 -0.000630162 -0.002576079 -0.0025538541 9.8890094e-05 -0.0007529944 2.4497944e-05 0.0032389727 0.002844438 0.0029338116 0.00316782 0.0016042432 -0.003409072 0.00017838378 0.003940602 -0.0028823183 0.0047802213 -0.003268246 -0.00089357456 -0.003079654 0.0044891057 -0.00010620755 0.0024682397 0.004825181 0.0015827633 0.004321715 -8.489728e-05 0.00479543 0.0031111042 -0.0023646909 -0.002506245 -0.0008334274 -0.00035455334 0.0037645877 0.0037950734 -0.0044921916 0.001798912 0.0025092245 -0.002023674 0.0020027494 0.002884517 -0.0026545532 -0.0022342172 0.0015008948 0.004403885 -0.0045933435 -0.004727516 -0.0011113521 0.003412734 -0.0013944306 -0.0008491957 -0.0016453927 0.003637087 -0.0003718833 -0.001422905 0.0036630603 0.0033844048 0.0025680703 -0.0006209798 -0.0038890454 -0.0012228956 -0.0011836241 0.0043392056 -0.0004811792 -8.2715276e-05 -0.0039599626 0.0025850758 -4.508205e-06 -0.0017616965 -0.0005615989 0.00035640533 0.001781401 -0.0045164945 0.0044394373 -0.00030556548 0.0043812855 0.0005528855 0.0004992878 -0.0029490655 -0.0010556686 -0.0045180353 0.0042778696 -0.0019469917 0.004634045 0.0029045348 -0.0015604291 0.003126191 0.0008328853 0.0038289325 -0.001980745 -0.00048581965 0.0018318937 -0.0032696063 -0.0019380398 -0.0012232166 0.00125562 0.0037634168 -0.0034994134 0.0034167168 -0.0004164086
自己 0.0044736215 0.0007437473 0.0042513595 -0.004491682 0.00018597355 -0.0027909316 0.0012796454 -0.0010390247 0.002431133 -0.00015825297 -0.0048607364 -0.005212854 -0.0035697538 -0.004398802 0.0015345165 -0.0004138245 -0.0030920205 0.0023033216 -0.0030529073 0.0030922918 -0.0044889175 -0.0030382622 0.0006827029 0.0013178679 -0.0017378324 0.0024133867 0.0034394134 0.0015444803 0.002314586 0.003948585 -0.0017880742 0.0041999165 0.0015584007 0.0047812755 0.0039011757 -0.0013945377 -0.0022319197 -0.001104069 0.003559301 0.003180819 0.004770177 0.0004442309 0.0033253029 1.510446e-05 0.0027886343 -0.001490943 -1.9031022e-05 0.003840934 -0.0021388705 0.0048650615 0.00080102065 0.0030660103 -0.0014905841 -0.0025224823 -0.004558159 0.0037808176 -0.003894571 -0.0020217977 -2.5490048e-05 -0.0043679 -0.0024841623 -0.0020244792 0.0030386383 -0.0037336228 -9.060754e-05 0.0047149276 -0.00052928535 -0.003240809 -0.0035651075 -0.003972911 0.0034795804 0.004818237 0.0048440536 -0.002658752 0.0042278254 -0.002751562 0.0036916041 -0.0012738024 -0.003966145 0.002433745 -0.0030955481 -0.00389094 -0.0032784864 0.0042746444 -0.0049640955 -0.0023657486 0.0011166239 -0.0016947218 0.0043892823 0.0025966202 0.0042148377 -0.0044500926 -0.0030987088 -0.00054545695 0.0015871159 -0.00027509517 -0.003633857 -0.004209844 -0.001617232 7.3179945e-05
瑜 0.0044197836 -0.0034776 0.0017039416 0.0015163443 0.0022465335 -0.0028394973 -0.001432282 0.0015102592 -2.723918e-05 -0.0034708572 0.004272349 -0.00067895005 -7.444661e-05 0.0005598053 -0.00463866 2.6388298e-05 -0.0044352477 -0.0009873313 0.003044981 -0.004060538 -0.00046597616 0.002762855 -0.0033471328 0.004203151 -0.0039470443 -0.0029803868 0.0016055147 0.0015004992 0.0013797703 -0.004265097 -0.002305175 0.003959605 0.004085474 -0.00047575537 0.004623092 0.003068674 0.0022823235 -0.001193298 -0.002138383 0.0015049239 -0.0034559858 0.004371327 -0.00028924146 -0.0010216327 -0.00044807044 0.0015978304 -0.00029400183 0.0044676834 -0.0024272974 0.000511798 0.0003826693 -0.003696066 0.0001329246 0.0009537905 -0.0045863623 0.002166243 0.0031870175 -0.002298148 -0.004943748 -0.0032356367 -1.5386047e-05 0.002223462 0.004561472 0.00024197527 0.0030466153 -0.0013623621 -0.00085448107 -0.0043520574 -0.0040180483 -0.0020023633 0.0024921664 -0.0023761862 0.0031028627 0.0023098865 0.002142465 -0.003947406 -0.00092761684 0.002134735 0.00041707244 -0.0039301175 0.0039319117 0.0016899733 0.0014517523 -0.0032670235 -0.0020192591 -0.00054888753 -0.0010336083 0.00027580783 -0.0008638154 0.0036760313 -0.0045725997 0.0031825015 -0.004567703 0.0003333378 -0.00032449985 -0.0030495103 -0.0035634257 -0.0032090226 -0.0047419234 -0.0022603457
也 0.0032169647 -0.004354547 -0.002007113 0.003025426 -0.003329176 -0.0010935494 0.0010452537 0.0029186893 -0.0033887173 -0.0015005168 0.0035145313 -0.0020526475 0.00023968305 0.0031314387 -0.0013619747 0.0025788923 -0.0032268544 0.002951773 0.0032031804 -0.0017722413 0.0024052586 -0.0017193288 -0.0022175964 0.0003239985 -0.0014992759 -0.0022021926 -0.004682884 -0.004103152 -0.0036910777 0.0020897842 -0.00024291106 0.002502491 0.0018170704 0.0019287429 -0.0034849902 0.00041499213 0.0047179814 -0.0037796353 0.004713237 0.00034161768 0.0022159277 0.0012743379 0.0010656059 -0.0048692487 0.0009905461 -0.0034920552 -0.0021246835 -0.0048538214 0.0008759742 0.00038004544 -0.0035427602 0.0039675594 -0.0034981563 0.0046195695 0.0017082015 0.004284208 -0.0014953859 -0.0046880553 0.0007415424 -0.0046548643 0.002640571 0.0013497279 -0.0022804444 -0.0019427218 -0.0041408744 -0.0025534872 -0.0011179617 0.0008875186 0.0008736718 -0.00012739906 0.001147912 0.0038735843 -0.0010649739 0.004944473 0.001559175 -0.0014730586 0.0039134296 0.0026023646 -0.0039428035 -0.0037087696 0.0023522195 2.6081494e-05 0.0012560975 0.00212567 0.0011319314 -0.00086948887 0.0043108463 -0.004244259 -0.0028415895 -0.0011313378 0.0025970794 0.0029917245 -0.0028550182 -0.0012445943 0.004935159 -0.0034887225 0.0047937767 -0.0018214679 0.0013990332 0.0032445039
真的 0.002177942 0.0016739856 0.0034000275 -0.0021524644 -0.0037001206 -0.004237271 0.0043836627 0.0045890054 0.0035018295 -0.00240595 -0.001427329 0.0022121212 0.0050345673 -0.0010788459 0.00091185817 -0.0019355062 0.0026097377 0.0015256276 -0.0013920512 -0.004630801 -0.0041201087 -0.0005646938 -0.00042900562 0.0033171168 -0.0035120896 0.0024153953 -0.0047603277 0.004400872 -0.0034567951 -0.0010661412 -0.0016939079 0.004112639 0.0024908956 -0.0025046123 -0.0041424246 0.0020934416 0.0028102498 0.0013166093 0.004102287 0.0018992183 0.003337534 0.00450115 -0.002250243 -0.0032607685 -0.0033415302 -0.0029103456 -0.0008390417 -0.0019118143 -0.0017141296 -0.003383498 0.00041357454 -0.00035551607 -0.0025656053 0.0026583257 -0.0015053344 0.0029770753 0.0029273941 -0.00030108527 -0.004448426 0.003618309 -0.002603937 0.00018603101 0.0011061124 -0.0037603287 -0.0041111447 0.004684744 0.0009381612 -0.0023429878 0.0039013098 -0.0018976383 0.0022192812 -0.0038976658 0.00047172394 -0.0021852322 -0.0011513506 -0.001258956 -0.00026384878 -0.004277858 -0.0039319834 -0.0038966455 0.0008028026 0.0016513427 -0.001493354 0.003956687 0.0017068124 0.0030860887 -0.0024801893 -0.0032579124 0.002416469 0.0037767706 -0.004646457 0.0009023472 -0.004949829 0.00085219496 -0.0018734947 -0.002693943 -0.0030693044 0.0039036586 0.004411126 -0.0023710232
上 0.000924838 -0.0030658206 0.003391797 -0.00029722313 -0.0020079112 0.0019387467 0.0040841857 0.0034711256 -0.004178139 -0.00079144386 0.0030395768 -0.0046550585 -0.0034649118 0.003456902 -0.004417724 0.0046967156 0.0029563126 0.0017115966 -0.00023302562 0.0014791806 0.00045956357 -0.0011684105 -0.0011646153 -0.00023684245 -0.0036482103 -0.0014899324 0.003728081 0.0045883637 -0.004780254 0.004281169 -0.00053281 9.3270355e-06 -0.0032889876 0.003486265 0.0028914805 0.00424014 0.00361135 0.0011018903 -0.0045178025 -0.0048709055 0.0005362608 -0.0031057189 -0.0014261059 -0.0039041615 -0.0034121599 -0.0029169554 0.0027522 2.9805615e-05 0.0038459678 -0.0027168712 -0.002089576 -0.004563471 0.00019284597 0.004615269 -0.0023079386 0.00129091 -0.0032015285 0.0037121025 -7.6260285e-06 0.0012267109 -0.0033774967 -0.0026935753 0.0037873976 0.0015822456 -0.00064838777 -0.00195688 0.0034117869 -0.00042436074 -0.0023378008 -0.0018338796 0.0015855343 -0.001925657 -0.0005737909 0.0033248381 -0.0013372346 0.00059411157 -0.00014959737 -0.0037562968 0.0027443103 0.0032051567 0.0033385048 0.0003919045 0.0035607119 0.0031016555 0.002282739 -0.004998685 -0.0046194317 -0.0015997707 0.0036398952 -0.0021055718 0.0018284598 0.00097488356 0.000861113 -0.00073853193 0.0035677822 -0.00432474 -0.0030865567 -0.0017963485 -0.0025351422 0.003611168
让 0.0014475283 -0.00012466716 0.0015866287 -0.0044751777 -0.0027132507 0.001548665 0.0013458176 0.0002273468 0.0029708783 0.0025743104 0.0016816255 -0.003037813 0.0021552434 -0.00047584003 -0.0020379943 -0.0043167355 0.00034694426 0.0016556856 -0.0021186557 -0.0015422122 -0.0005577594 -0.0017688127 -0.005101548 0.0030812118 0.0019289869 -0.0035899887 0.0036780532 0.0028484191 -0.0040290235 -0.0043973154 0.004779279 -0.0007798103 -0.0039020635 -0.0004865158 -0.0044107097 -0.004316451 0.003982803 -0.0038901295 0.0033217482 0.0005686439 -0.0016673747 0.002062687 0.0022958748 -0.0006516652 -0.0012661195 0.0011780193 -0.003151571 -0.0015597409 -0.0025600845 -0.0022539746 -0.0038280152 -0.00049551524 -0.0006839348 0.002871994 0.0047710636 -0.0025866309 0.0031879703 0.0031294776 -0.002414243 0.0008600513 -0.003577356 0.0033564135 -0.0031197155 -0.0009455227 0.00083903834 0.003486456 0.0021504653 -0.0045279665 -0.004089755 0.0023893835 0.0035266757 0.0038844645 -0.003720199 0.0028885144 -0.0036189093 0.0020837928 0.0030171564 0.0031024066 -0.0042740474 -0.0012026635 -0.002153351 -0.00030294896 0.002786504 -0.0033893094 -0.0047445097 -0.0017699542 0.0046815434 0.0034124092 -0.002943741 0.0031908776 0.0021868357 0.00030948475 -0.0032431637 0.0035998935 0.0046309386 0.00157271 -0.0015221648 -0.0011467605 -0.00204154 -0.002075909
哭 -0.00054863363 -0.00461261 -0.0028998551 0.000117355965 0.003200771 -0.0043335767 0.0033567809 -0.001724437 -0.0028581808 -0.0040470357 0.0009733845 0.0012309841 0.003926095 -0.0008044832 -0.004206763 0.0033680503 0.0035001005 -0.002414207 0.003283619 -0.004642805 0.00024265732 0.0004474744 0.0028563808 -0.004613829 0.0036784862 0.0031447082 0.0026676971 -0.0026432208 0.004207839 -0.00037523976 0.002768666 -0.002647789 -0.004260517 0.000107016975 -0.0013073188 0.0009701737 -0.0031966195 -0.0044470127 -0.0034926482 -0.0015266592 -0.0023787138 -0.0014175206 -0.003789872 0.0023050094 -9.85282e-05 -0.0014781719 -0.004021379 0.0038695266 0.0038011395 -0.00348527 0.0037354804 -0.0020486997 -0.004032177 -0.002615528 -0.0033963884 -0.0018178062 0.001887668 0.0012481359 0.0016597193 -0.0016640329 -0.00050007476 -0.0034961367 0.003435292 -0.0026214942 -0.00025335 -0.0006973287 0.0034221038 -0.003956512 -0.004096257 -0.0020353345 -0.000102075624 0.0028574616 -0.003360656 0.0008766181 0.00084414775 -0.000605988 -0.0020426153 0.0047967033 0.0012202552 0.0035092342 -0.0012360289 -0.004660251 0.0039870394 0.0016077537 -0.0014302684 -0.0016264868 -0.003417042 0.0050457977 -0.002388767 0.00431353 0.004114667 -0.0045071766 -0.002333194 -0.0036045825 0.0005403804 0.00062752765 -0.0045183417 -0.00019415698 -0.004323189 0.0008331003
尹正 -0.00072414876 0.0049723224 -0.0044916836 -0.0044724443 0.0035686253 0.001800424 0.0006123323 0.0025257366 0.0034027977 -0.005079308 0.0024413955 0.0041632378 0.0007324802 0.0037366925 0.002298221 0.004652082 0.0014869162 0.0017237319 0.0011716203 -0.00042028408 0.0041311886 0.00044799125 -0.005124776 0.0048544086 -0.0010817532 0.0046761413 0.0010650926 0.0028434454 0.0019223408 0.0009930365 0.0011898665 -0.0039790315 -0.001190464 -0.0036820222 0.0028309762 -0.0033318081 -0.002081206 0.0011512307 -0.0040208967 -0.004143131 0.0025076158 -0.004893166 -0.004426172 0.004172682 -0.0043093218 0.0021606097 -0.0012245327 0.00082355965 0.0023423152 0.0023316802 0.00074499036 0.0031072774 0.0049666436 0.0045248014 0.00047429698 -0.0026053796 -0.0003617427 0.00064084714 0.0042748973 -0.0016617455 0.003503772 0.0043329867 -0.0044277 0.002308832 -0.0006808287 0.0041047106 0.0005365972 -0.003358409 0.0017655196 -0.001019561 0.0030161333 -0.00440681 0.0023940664 0.0006700663 0.0045593106 -0.00048692923 0.0050980253 0.00056558085 -0.0043479535 0.0013023878 -0.0004860914 -0.003824281 0.002714713 0.00034994402 0.003705795 0.0019288426 0.0020678411 -0.0038141783 0.004418142 -0.0018417595 -0.00022635276 0.002412365 0.0021619878 0.002994708 -0.00227624 0.0024172016 0.0040884516 0.004888829 -0.0030088152 -0.0009720418
飞驰 0.0021625445 0.002590481 -0.00293979 -0.0005819999 0.004379177 -0.0012838222 0.00075444236 -0.0047465325 -0.0015604364 -0.0039928374 -0.001699902 -0.0041515916 -0.00437547 0.0036805172 0.0034206007 -0.00054077856 0.000635073 -0.002401821 0.00014450957 0.0010110491 0.002148344 0.0005593687 -0.0038284478 0.005030147 0.00068384176 -0.004223115 0.0032948356 0.0026078285 -0.0005787123 -0.00073732395 -0.00021943156 0.0043502655 -0.0011791047 -0.0032284332 0.003308814 -0.0033987376 0.0046986216 -0.0026316312 0.0010393817 0.002381293 -0.004075228 0.0041070287 0.003928142 -0.0036437493 -0.0048898645 -0.0034409624 0.004840071 -0.0037079025 0.004912233 0.0047099763 -0.00084070396 -0.0006377504 0.0022876114 -0.002896565 -0.003991977 0.0051075704 -0.001015817 -0.0047288905 -0.0026408345 0.002230625 -0.0040480387 -0.0026753123 0.0016906657 -0.0011072388 -0.0014595297 -0.0046534296 -0.0034709286 -0.0009888943 0.0014368794 -0.0031086702 0.0041177054 -0.00313278 0.0046737893 0.0029238872 0.003216849 -0.0038488437 -0.001057712 -0.0036742496 -0.0034778593 -1.3281777e-05 -0.0027696379 -0.000111939444 -0.0017846056 -0.0047409027 -0.0041321074 0.0033811075 -0.0010870332 -0.0031780177 0.0011579699 -0.004811114 8.8690166e-07 0.004090177 -0.0006545449 -0.0027027715 -0.0026062992 -0.0025089285 0.0026195229 -0.0045038206 0.002659618 -0.003193956
前半段 0.0017189416 -0.0016234128 0.0042023677 -0.0040374342 0.002333451 0.0025381648 -0.0022662662 0.001227371 -0.0011672947 -0.002159966 0.003843899 0.0019247751 3.5877943e-05 0.0004346521 -0.0018205653 0.00063516834 0.0044156495 0.0011332943 -0.000957267 -0.0035274879 0.0047180876 0.0031246073 0.0013021113 0.005078428 -0.0022836002 0.0041005695 0.0039046588 -4.086097e-06 0.0025704456 0.004895629 0.0006455068 -0.0034259437 0.0021351038 -0.0010651156 -0.0005597661 -0.0007412739 0.0006629356 0.0033867129 0.0021521414 0.0049415263 0.0025551203 -0.0039735422 0.00084055157 0.00078383903 -0.0011253803 4.9522634e-05 -0.003968302 -0.0012991407 -0.0006599247 0.0033155775 -0.002359221 -0.0043472406 -0.0038691987 -0.0027142835 0.0039605843 -0.0013888192 -0.0036047958 -0.0022614538 -0.00029081607 0.0017165943 0.00033434478 -0.0051201154 0.0007576692 -0.0025158846 0.004244307 0.0026152842 -0.004054189 0.0015471334 0.0013143854 -0.0045289313 0.0049856715 0.004451144 -0.0050496464 -0.0015951651 -0.001994875 0.0044210954 0.0038195879 -0.00070286903 -0.0045225173 0.0008429807 0.0010514077 -0.004387713 0.00014078978 0.0007047351 0.0038985126 -0.0011199042 -0.0034701247 -0.004772367 -0.0005699512 -0.0021164436 -0.0026353556 0.0015769774 0.0019591844 0.0046400703 0.003287786 0.0048123267 -0.0019911625 -0.0014685919 0.0037957937 0.0022947723
完 0.0021376156 7.853679e-05 0.0018981975 0.0013963497 -0.0009748324 0.0017319345 0.0048559797 -0.0016117347 0.0016870595 0.0006001513 -0.0024542136 -0.004971101 0.0024220804 0.004991457 0.004244236 -0.0049307477 0.0033394513 -0.0023607984 0.0019307943 0.0030311435 -0.004664467 -0.00033077731 -0.00058972946 0.00073145726 0.00145785 0.002322386 -0.003625695 0.0035094193 -0.004621916 -0.0045512025 0.0033728506 -0.0035027715 0.0047883894 -0.0039762477 -0.0047269952 -0.00055795204 -0.0029559475 -0.0030533504 -0.00048911024 -0.0016856934 0.0007675731 -0.0026108692 -0.0017761027 -0.0021489619 -0.0031096071 -0.004666612 -0.0027976506 -0.0046914374 0.0033690769 -0.004273491 0.0032154422 0.0009807291 -0.000915806 -0.0033864912 0.00501776 -0.0019620839 0.0020655552 -0.0033959907 0.0018365238 0.00424839 0.004332511 -0.0029206323 0.0044555906 -0.0041679703 0.0015298739 -0.0011836527 0.0016879541 0.0010380415 0.0019759117 0.0040940666 -0.0027196605 0.00219256 0.0007089888 0.0017410099 0.0018179379 0.004278349 -0.0012201567 -0.00044912766 0.0046572075 -0.0014316705 0.0032575387 -0.0011330204 0.0033544553 -0.001853835 0.0036173372 -0.0005790421 -0.003660611 0.0028358968 0.004678421 0.0029866404 -0.0025407292 0.0029129363 -6.4342705e-05 0.0031903528 0.0009403979 -0.0016196494 -0.0010157613 0.0025912349 0.004290957 -0.0036093628
又 -0.0039047496 0.0017172229 0.004461756 0.0023076895 0.0013949604 0.0017839649 0.00021252705 -0.0005821848 -0.0009133735 0.002244538 0.0037972562 -0.0022996052 0.0050204066 0.0035277277 0.0022394848 0.0046121716 -0.0030807767 -0.004648668 -3.5507936e-05 -0.0050363904 0.0019371541 0.0029473666 -0.00038964686 0.002549752 0.004638296 0.004059798 0.0012392114 -1.6580918e-05 -0.0046845204 0.0033613967 0.0017631903 0.0010170317 -0.0029018712 -0.00034447896 -0.0031331857 -0.0032296916 0.004426375 -0.0030745983 -0.0021844737 -0.0042401943 0.00061006116 -0.0013040113 0.004147921 -0.0013855757 0.004445726 -0.0008407153 -0.0021020025 0.0028788445 -0.004899095 0.0032718955 -0.0045051784 -0.0028118289 0.0043110573 -0.0026523576 0.002394475 0.0046288744 0.0024236233 0.0006862115 -0.0018074616 -0.0041389246 0.00056471163 0.00071435916 -0.0044403668 -0.0019755964 -0.0008070407 0.0014704793 -0.0042165685 -0.0018977533 -0.0026882954 0.0015677464 0.0015725031 -0.0015826585 -0.0023009283 0.0045355475 -0.002668466 0.004588964 0.003124861 0.0048241955 -1.4359249e-05 -0.0010134351 -0.0004295372 0.0021992568 0.0043186448 -0.0013484124 0.003100809 0.0030614068 0.00014175879 0.00047207664 -0.0028574672 -0.003741227 -0.0005164227 -0.0040917248 0.0045964946 0.001415527 0.0017988848 0.0039716363 -4.9402224e-05 0.0031798093 0.004756654 -0.0013987666
太 0.0015452554 -0.00127564 -0.004297071 0.0014391523 -0.0008461306 -0.0014860346 -0.0044460767 -0.0042785443 0.0010214996 -0.0046762084 -0.0021066323 0.0017910394 -0.0019663752 0.0039596455 0.00076782855 -0.004332582 -0.002347526 0.0015754494 0.0003525108 0.0047327303 0.0050933533 0.0032809589 0.003769798 0.00481991 0.004439727 0.0032599105 0.0019574964 0.00014002029 -0.002609984 -0.00083485164 -0.00048205198 0.0022336133 -0.0031441757 0.004657571 0.0010955433 -0.0038650467 0.0026210805 0.0016460086 0.003391897 0.00016582203 -0.0018517099 -0.0009667339 0.0008907579 0.0031092567 -0.0006264183 -0.0028508701 0.001568123 -0.0042052227 0.00048744946 -0.0032805733 -0.00010853653 0.0032166075 -0.0021422876 0.00082632806 -0.0044303755 0.0031259048 0.0012485096 -0.004378121 -0.00066886825 4.5039924e-05 0.0039445236 0.0012131144 0.004909194 0.0032625936 0.000508158 0.0044250945 0.0037602328 -4.832421e-05 -0.00044973975 0.0014752661 0.004313007 0.0021274202 -0.00093446265 -0.0037674068 0.0040425453 -0.0010306675 -0.0024935112 -0.0034663177 -0.0041125584 0.00015391805 -0.002021604 -0.002354255 0.0015740857 -0.0013868882 -0.000575789 -0.0036327478 -0.0009029465 0.00065643113 -0.0012796308 -0.002127374 0.0013201183 -0.0006060641 0.004673104 -0.0040457007 0.0030007523 0.00036711802 0.0015110711 0.0034854459 -0.0038435068 -0.00228661
却 -0.00012499976 -0.0027712446 -0.00029552093 -0.00057957665 0.003567002 -0.003436714 0.0045602005 -0.0013203998 -0.0012699867 -0.0022590866 0.0011930362 0.002000517 0.0027861109 -0.002502924 0.0005505839 0.0013283344 0.0011890047 0.0047288914 5.7775265e-05 0.004258681 0.0042053503 -0.0046920716 0.0015579878 0.004672958 0.001916514 0.00030294235 4.3066266e-06 0.0042395806 0.0043006027 -0.0038813853 0.0020484354 0.0004582804 -0.002512754 -0.003726142 0.0024014635 0.0025870483 -0.004120941 -0.0046323347 0.0047453865 0.0021689425 -0.004710876 0.00227113 0.0037934484 -0.00414269 0.003278478 -0.0039262273 -0.0011366436 0.0021016232 -4.615843e-06 0.00033568894 -0.0045996928 -0.004374245 -0.0032069215 0.0023278396 -0.0008804594 0.0013195961 -5.830362e-05 0.0028419544 -0.00037938255 -0.0039119287 0.00078457105 0.0032878737 -0.0023208407 -0.001020324 -0.0036955636 0.00012923525 -0.0021151183 0.0017844434 -0.0006234883 0.003652151 -0.0013529763 0.002487821 -0.0049522654 0.003284922 -0.0028337238 -0.004680656 0.003846945 0.0034374082 0.003369252 -0.0009830034 -0.00095515273 -0.0030430355 0.0037915627 0.0042549362 -0.0008620241 0.0012860703 -0.004786178 0.0019485505 0.0020470228 -0.0034468533 -0.003912149 -0.00460041 0.0033907064 0.003012321 -0.004243731 -0.00045568877 -0.004388467 -0.0039032113 -0.0020732689 -0.004197064
就 -0.004707568 -0.0026759198 0.0009701236 0.0037611749 -0.004124557 0.0021609352 -0.0048739025 0.0021566146 -0.000115500894 -0.0010289021 0.0030198486 0.0038327659 0.0012164577 -0.004021257 0.00041631662 -0.0018510425 0.0014563345 0.0016219468 0.0018243694 -0.001818219 -0.000962835 0.001183904 -0.0037103945 0.00036823802 -0.0041619167 0.0035602085 -0.004770953 -0.0016163781 0.0014413279 0.0048146667 -0.0038534675 -0.0007353294 0.0038384164 0.0037173901 -0.0014276755 -0.0007345048 0.004364986 0.0033685893 -0.0044379407 -0.00027259038 -3.9804814e-05 0.0030846468 0.00012296149 -0.001868199 0.00088124425 0.0048126327 0.0033654629 -0.0016855344 0.0013882421 1.1866995e-05 0.0032134154 0.002002112 -0.0016958381 0.0018411765 -0.0036187943 0.0027250804 0.0011512405 -0.0025067648 0.0020506205 0.00059706107 0.0021565447 -0.0005073208 -0.0010011609 0.003821533 -0.00298595 -0.0033346359 0.0016007536 0.0035413147 -0.0010325504 0.0011095386 -0.002326367 0.00040055436 -0.00021649692 0.004156927 0.0005813159 0.0010824392 -0.0017461898 0.0047148643 -0.0023558198 0.00018632648 0.0038291907 0.0038414625 -0.00040332068 0.00019369797 0.00069040037 0.0019707528 -0.0038768514 0.0006434441 0.0001710457 0.0029613166 0.0040224055 0.0032890209 -0.0017610245 0.0038266445 -0.0037082785 0.002845531 -0.000665258 0.002443668 -0.001932217 0.00067690713
布鲁克 -0.002539978 -0.0038712758 0.0046040495 -0.0049358495 0.0030065374 -0.0024560369 3.0407095e-05 0.001581344 0.000814678 -0.0034572086 -0.002499065 0.00342999 0.002582206 -0.0043657254 0.0027332178 -0.0017367409 -0.002525598 -0.0028778908 0.0024895153 0.0041373195 0.00079509546 -0.0016790163 0.0040846313 0.0030939195 0.0044671223 0.0023544747 -0.0010838915 -0.0017549382 0.0018345842 0.0044469046 -0.0014740312 -0.0042137583 0.0029462967 -0.0029277506 0.0003187848 -0.0018716109 0.0031414258 -0.0048410934 -0.00411708 0.0008848377 0.0009301391 0.004143584 0.00084528216 -0.0010468612 -0.004017925 0.0020787388 0.00012693528 -0.0015042501 0.00375136 0.0035167693 0.0014747388 0.0011779019 0.0013253237 0.0022410112 -0.0023747194 -0.0043404303 -0.00015097311 -0.0032672104 -0.00051889353 0.0014138907 -0.0048779934 0.0024883875 -0.0021568267 -0.0002601125 0.0027892417 -0.0009992403 -0.002933774 0.00020422514 0.00022994017 -0.0042245947 0.00322233 -0.0029029245 0.0043874877 -0.0046445727 -0.003945264 0.0022853254 0.0029292568 0.0026451936 0.0039828625 0.0031997536 -0.0029621436 0.00049370364 -0.0021560036 -0.0005683282 0.00056332053 0.00049104576 -0.0039260616 -0.00033404888 0.0024900201 -0.0018092223 -0.003927855 0.0016760593 -0.0008834571 -0.0019077971 0.0009248643 0.0038248098 0.0012124453 0.0031899395 -0.0043691173 -0.004299817
不 0.0011049198 -0.000110197296 -0.00382465 -0.0038983885 0.0034469445 0.00047939105 -0.0007549231 0.00010760983 -0.0009802748 0.003853393 0.004510494 0.003882217 -0.00231559 0.001674889 0.0034056748 0.0037954478 0.0027770281 0.003286888 0.004529349 -0.0010858271 -0.00044637965 0.0013694341 -0.00059191184 -0.0043543056 0.0019864189 -0.0037191652 -0.0048846207 -0.0025580754 0.00091541494 -0.0023175813 -0.0034136805 7.113522e-05 -0.002381267 -0.0011480736 0.003408649 -0.00013301052 -0.002710281 0.0032728824 0.003914476 0.0015844611 -0.0017778527 -0.0020816983 -0.0018830654 -0.00078723824 0.0032801873 0.0021279713 0.004068334 0.004591477 -0.0028019212 -0.00019312571 -0.0021258572 -0.0045695365 0.0050397636 0.0008897013 -0.00018553418 -0.0044319555 -0.002861594 -0.0006865175 0.0040891822 -4.3551525e-05 0.0012661224 0.0013882673 -0.0042446028 -0.0012324951 0.0046491195 0.0015305842 0.0009920651 -0.0021155567 -0.0045220195 0.0006797614 0.003378662 -1.3785034e-05 -0.004119623 0.0031698074 0.004712382 -9.103457e-05 -0.00062009203 -0.0045440854 0.0045765545 0.0019962175 -0.0028815728 0.00060302415 -0.00479322 -0.0015967847 -0.0039147446 0.0040530274 -0.0027384232 0.0042204033 0.0033308852 0.0030849164 0.0041837567 -0.0050444463 0.0045139357 -0.0039051545 -0.0012511457 -0.0048963837 -0.0011461606 0.003789812 -0.0038489169 0.003459868
一个 -0.0023561865 0.0010632708 -0.00027705147 -0.004482858 0.0008101345 0.00036855074 -0.0024689683 -0.0040025394 0.0008427707 0.0008158258 0.003545442 -0.0027290431 -0.004287043 0.0040614964 0.0030497399 0.0027831786 0.0036544632 0.0028548883 0.00076384656 -0.003419537 0.0041541737 0.0025118405 0.00082081667 0.0018346747 0.0051144226 -0.0012452792 0.003263906 2.7924778e-05 0.0017009499 0.0019466867 0.004555858 0.0018270168 0.0014251072 0.0035572727 -0.00412245 0.00428893 0.0018382793 -0.0044369455 -0.0027986763 0.00059619185 -0.00068761146 0.00068401865 -0.0047445963 0.0040552123 0.0016732747 -0.0013710251 0.0038576163 0.0007631928 -0.0017554825 0.0009927017 -0.0043903147 -0.0009975568 -0.00397019 -3.034064e-05 0.00060034636 0.003077923 -0.0043296074 0.002377888 -0.0039497544 -0.0044412958 -0.0004656437 0.0046785753 -0.0013510978 -0.0025776292 0.00012620307 -0.00028458773 0.0013935014 0.0048356014 -0.0025316845 -0.0019584242 0.002181694 0.0006553351 -0.0048696324 0.0020808189 0.00022043717 0.00041775382 0.0016600179 -0.00066021783 -0.0027302545 -0.0035792366 0.0010476441 -0.00017394467 0.0012494023 0.003854332 0.002709327 -0.0044770036 -0.0034647335 -0.0011600034 0.0024105418 0.00379453 0.0040306034 -0.0035664735 -0.0026078762 0.0005698909 0.00015902008 0.00024557908 -0.0036346407 0.0007026311 -0.0025072584 -0.0020969426
燃 0.004384553 -0.0012440818 -0.00018112858 -0.0018951341 -0.0048041595 0.00037252592 -0.00092514494 0.003293799 0.00022527346 0.0019964292 0.0012739957 -0.00024944538 -0.00207571 -0.0024958346 0.0037446755 0.0031444735 0.0015280931 -0.0037574882 -0.00027578662 -0.004475119 0.0036538304 0.0045748414 -0.0039997497 -0.0023991966 -0.0031052893 0.0034807746 -0.0012693274 -0.0010032114 -0.0016655257 0.0023414248 -0.003178612 0.003281579 -0.003801702 0.00064018765 0.0019939584 -0.0004677167 0.0011297842 0.0008081575 0.0043537477 -0.0021723697 0.004433528 -0.0010927728 0.0003434916 -0.004287868 0.00040764504 -0.0002299057 -0.00123463 0.00069638615 0.0032933 0.004955668 -0.00087758637 0.0016362297 0.004094735 -0.0029915622 -0.0017089348 0.0011213822 0.002372492 -0.0024825209 0.003831029 0.0035382628 -0.0037010969 -0.0033165365 0.004287969 0.004320304 0.0008645402 -0.0026642466 0.0032913783 -0.004149925 -0.00201012 -0.003069808 0.0042535136 -6.99023e-05 0.0023343926 0.0040880637 0.003349771 -0.0015104862 0.0029665255 -0.00016081783 0.0030511457 -0.0041924035 0.003619269 -0.00049623585 0.00021226931 0.003453876 0.002702555 -0.0042646374 -0.0017343254 0.0041715475 0.001517216 0.002537822 1.146394e-05 -0.0029973378 0.0027467986 0.002932455 -0.004350094 -0.0018731889 0.0037808814 0.0033100534 -0.0026958876 -0.0020204722
后面 0.0008347223 -0.004331639 0.00066134305 0.0007097279 0.00078536954 -0.0014997638 0.004148718 0.0045718877 0.0031992542 -0.0033699132 -0.0027325556 0.002151692 -0.003955931 0.0028530934 -0.003931489 0.0048493845 -0.0044265133 -0.0033264412 -0.0008159836 -0.0036294197 0.0030203718 -0.0035446957 -0.0006429652 0.002275417 0.004346448 0.0023850142 0.0033693826 -0.0004970546 0.0043626027 0.0047826385 0.002131521 0.00145357 -0.003804102 0.0031464063 0.0025371267 0.0018616249 -0.00015328435 0.0040132697 -0.0012642898 0.004414805 0.004516219 0.003368686 0.0035905489 -0.0005365022 -0.0032843214 0.00042617173 -0.00021366811 0.0032515475 0.003588092 0.0025509046 -0.0046192477 0.0011024484 -0.0003655343 0.0033468718 0.0043706284 0.003905891 -0.00041575092 -0.0036954968 -0.002755691 0.004101702 -0.0048065814 -0.0013801961 0.004743778 -0.00488915 -0.0014926285 -0.003722404 -0.002271933 -0.002123528 -0.0020441064 0.0011090338 0.0005663196 -0.0040435116 -0.0021638158 0.002852981 0.0019865977 0.0021465814 -0.0042249043 -0.0028828147 0.0027592164 -0.001670329 -0.004150282 -0.0050379587 0.0007645243 0.0035994293 0.0002950796 0.004041764 0.00017220853 -0.0018210832 -0.0038476717 -0.00019396318 0.0014249767 0.0018720204 -0.00508606 0.002881557 0.0037474309 0.00316324 0.00117852 0.0049092975 0.0024967627 0.0015005327
感动 -0.0009889745 -0.0007331051 -0.0028126563 0.0010433829 0.0024445648 0.004198931 -0.0010569354 -0.004598421 0.0032762934 0.0008589643 0.00017529851 -0.0027628995 0.00093765924 -0.0034637717 0.0012360113 0.0019186648 -0.0010082592 -0.0030016284 0.0017234689 0.0026932422 0.0046281987 0.0049827877 -0.0022876156 0.0024767919 -0.0030865336 -0.0020832028 0.0013942256 0.004692454 -0.0014495106 -0.0042718626 -0.0014892431 0.0040698377 0.002741182 0.0028183965 0.0043036006 0.004039122 0.0040498637 -0.0026848156 0.0045798398 0.0022908698 0.0026261373 -0.0046859356 0.0013422479 -0.0043352796 0.0024031175 0.0010258822 -0.00083575 -0.0025418203 -0.002401596 0.0012397028 -0.0009288301 0.0019042585 -0.0034214116 0.0009685921 0.0046720537 0.0017891106 0.003823477 0.00043033072 -0.0029515103 -0.004602182 -0.004281179 0.004875556 0.002260845 0.0012236212 -0.0022592626 -0.0040464764 -0.00032630216 -0.0020687496 0.004917493 -0.0019013095 -0.004446076 1.9849087e-05 -0.0038941577 0.002044987 0.0012569979 0.0023022129 -0.0032739153 -0.0039393115 0.0014534084 0.0030291642 0.0047657797 -0.0010604381 -0.0032140326 -0.00045109852 0.0034158095 -0.001443884 -0.0023717454 -0.00074290874 -0.0013128287 -0.0035357636 0.00011674593 -0.004071924 -0.00020817766 0.0007923907 0.0015859457 -0.0012868394 -0.004842716 0.002972126 -0.004688495 -0.0028796045
还 -0.001965423 -0.004906907 -0.00074042194 -0.0011685201 0.0022126439 -0.001420346 -0.00042313235 0.0015761004 -0.00037206028 0.0036928714 0.0028501896 0.00045835262 0.0033884633 0.003637792 0.0031687994 -0.0004221409 -0.00359748 -0.0010915223 -0.001971275 0.0016687531 -0.0011621937 0.002769479 -0.00047082832 -0.003969047 0.004970737 -0.0027505062 0.0042454037 0.0015636178 -0.00453028 0.0007694505 0.0027532969 -0.0015490601 0.001979323 0.0017596933 0.0025290982 0.0014856439 0.0006988836 -0.0010783352 0.001840353 0.0014313044 0.00018638272 0.0033895944 0.0016601994 -0.0038906038 0.003430473 -0.00012420132 0.0026070077 0.0020203847 0.00434014 0.00089474686 -0.0042649675 0.004283169 -0.0016808206 -0.0037879609 0.0026394567 0.00016969618 -0.0022490828 0.0039670104 0.003477331 0.0009422991 -0.003980708 0.00039579038 -0.0026813291 -0.0041671437 -0.003893385 0.004341956 -7.484982e-05 0.0020215781 -0.002013888 -0.0027295689 -0.0038173741 0.0008377843 -0.0020999627 0.0032839964 -0.0041924207 0.0029465547 -0.0028665767 0.0008033416 -0.0013163245 0.0012489135 -0.00096266257 -0.0005372758 -0.0010927204 -0.0033762848 -0.00053347816 -0.00059530616 0.0014419695 -0.004073903 0.003676697 0.0002733365 0.0018018445 0.002340085 -0.0045031724 0.004375539 -0.0013345535 -0.0026395263 0.004592427 0.001726977 0.0042988723 -0.0009808127
点 -0.0008871391 0.0012196607 -0.0019639004 -0.0050832257 0.0029689502 0.0031782966 -0.0011212237 -0.0040151053 0.0022902724 0.003020375 -0.0002588825 0.0032353362 -0.0007692605 -0.0045688064 0.003119497 0.0011212913 0.0015190373 -0.003675132 -0.0033751442 -0.0002102376 -0.0031210335 -0.0013433314 0.004465577 0.0036156287 -0.00063778093 -0.0009830336 0.0044554262 -0.0035316993 -0.0021269456 0.00071966235 0.0008189428 -0.00016657628 0.0014669952 -0.0010919874 0.0010604376 -0.0005180344 0.001971632 -0.0044096136 -0.0021723462 -0.0045358525 -0.0038516014 -0.0025265852 -0.0030936594 -0.00042920592 -0.000885662 0.0015662543 -0.002236306 0.0041275234 0.00042909003 0.0030563932 -0.0011620299 0.0014710982 0.0031051398 -0.00014178974 -0.0023241807 -0.0041100075 -0.0038178482 -0.002069432 0.0039065112 0.00074900384 0.0036441525 0.0046443674 0.0019681524 -0.0023956401 -0.0041724397 -0.0004900833 0.0023343647 0.0009391478 -0.0032690344 0.0042944048 -0.0042348024 -0.0021136133 -0.001942567 0.004551369 -0.0025659543 -1.0111934e-05 0.0012978584 0.0012333165 0.0014347488 0.0036495985 0.003190703 -0.0038857837 -0.0022059337 0.0025915883 0.0010776857 8.5850836e-05 0.0008567961 0.0025447705 -0.0025472615 0.00055912824 0.00261965 -0.0021883477 -0.0016329223 0.0020895747 -0.0044732084 -0.0018716821 -0.00010275683 0.002949463 -0.0019905337 0.0018907137
会 -0.004940496 0.0040276814 -0.004380575 -0.002031131 -0.0011303555 0.0038278175 0.00292558 0.0019816866 0.004929736 0.004490734 -0.00093221175 0.0013782773 -0.0001864524 -0.0026740376 0.003421648 0.0045759985 0.0037487717 0.0017263714 -0.0007331347 -0.0010081248 -0.0024783565 -0.00022938008 -0.004153415 0.004690327 -0.0027241702 0.0044442667 0.0012316866 -0.0025645462 0.00382351 -0.000759518 -0.003986337 -0.003413293 0.0016901297 0.003628228 0.0035991461 0.0013275049 0.00025713778 -0.0002764397 -0.0008656033 0.0013518392 0.0012809539 0.0013967399 0.001541063 0.0015088803 -0.004892008 0.0025973455 0.0043473123 -0.0041175536 0.003135898 -0.0017908451 -0.0004722299 0.0045144334 -0.0039269323 0.0050308206 0.003912469 0.00508103 0.0033743281 0.004392734 -0.004746167 -0.0010663115 -0.0031171073 -0.0015382064 -0.0033923045 -0.004655541 0.0008053309 -0.0035003342 -0.0015575608 -0.0040701176 0.00097189454 -0.00024332125 0.0027505613 0.0035300294 -0.002726893 0.0006704085 -0.002831569 -0.0027833239 0.0031211595 -0.002711543 -0.0012428189 0.0012162029 -0.004095664 -0.0018919178 -0.0032738335 -0.0049214712 -0.0024839905 0.0041030613 -0.0022603187 -0.003273848 -0.00029577254 0.0036133525 0.004074143 -0.0042027184 0.0034205508 -0.004198704 -0.004521573 -0.00047481616 0.000954333 -0.0015088798 0.0017187455 -0.0031078241
中 -9.107217e-05 -0.003573953 0.0008825399 -0.0037145163 0.002535168 0.002091537 0.0010748643 0.0033957977 0.0049143634 -8.468079e-05 -0.0025840553 -0.00095894217 -0.003417495 0.0025348938 0.0002995061 -0.0015025605 -0.0043563326 0.0016483159 -0.0020131834 -0.0050059822 -0.0015284757 -0.0031276925 0.0025865429 0.00012687102 -0.004694769 0.0012777313 0.0022850286 0.0019851497 0.0031643144 0.00032375232 -0.00041716764 -0.0020551917 0.0024706156 0.0009117082 -0.004798751 -0.004653559 -0.0019630285 0.0049528 0.004798661 -0.0016039402 -0.0026374303 0.0041694976 -0.001241619 -0.0023269623 0.0038755045 0.0012824074 -0.001997359 -6.6118635e-05 -0.0032767323 -0.0009671811 -0.0012401917 0.00027946418 -0.00408675 -0.0027452132 -0.0027159345 0.00032649637 -0.0014785904 -0.0036915415 -0.0015419107 -0.0012568876 -0.003950305 -0.0018167619 0.0050926553 -0.0011282527 -0.0008721316 0.004713604 0.0003620318 -0.0014263142 0.0039525456 0.0006990851 0.002867099 -0.0033770197 -0.0040392163 -0.0041149626 0.0036393213 -0.0018647729 -0.0038528205 0.0005670637 -0.0023977468 0.0026081319 -0.0036653941 0.003758006 0.003984557 0.0033190467 0.004458482 -0.0040399483 -0.0045943665 0.0032074635 0.0041178213 0.0025085364 0.003314331 0.0025018372 -0.004576759 -0.0029194744 -0.0023412425 -0.002739769 0.0033389598 -0.001712555 -0.0026973276 -0.004743451
得 -0.0030639293 0.0022941225 0.002865814 0.0041537094 -0.0021200376 0.0015847597 -0.0020511188 -0.0021745046 -0.0034724323 0.004586842 0.00069292635 -0.0018819348 0.0007431991 -0.0042613167 0.0024067946 -0.0020855116 -0.00336648 0.0029204765 0.004609643 -0.0049233725 -0.0007433235 0.004760957 -0.002104607 0.0039811237 -0.0044798767 0.0007276439 0.0020824943 0.003955836 -0.00207934 -0.0015209338 -0.0007800156 -0.0006804229 -0.0042909933 -0.0037098879 -0.00028970523 0.0026456928 0.004225537 -0.0039143795 -0.0032148506 -0.0013419648 -0.0030892096 0.00032507066 -0.0027883903 -0.0012882471 -0.001291414 -0.00040320956 -0.002803353 -0.0014293303 0.004142578 -0.00038875654 0.002796321 -0.004418298 0.00071366405 -0.0007908682 0.001997219 0.0036947092 -0.0019598396 0.002183061 -0.001360678 0.0033981854 -0.000955067 -0.0037698566 -0.00040895518 -0.0021962181 -0.003430329 -0.00059067644 0.0030396744 -0.0027675214 0.0018467092 0.004504179 0.0029828225 -0.00019997751 0.0024509588 0.003889096 -0.0018417931 0.00081813737 0.0035281947 0.0018270141 0.0035465034 -0.003873815 4.6335463e-05 -0.00042532058 -0.0023640983 -0.0005631382 0.0041316473 0.00012763619 -0.00036904347 -0.0038104649 0.002323394 0.0035269833 -0.0023047554 0.0011283436 0.0023439587 -0.0018138147 -0.0034072462 -0.0034896338 0.0009822503 0.0031019389 0.0020734654 0.0030233548
与 0.0029132937 -0.0020833532 0.004547868 0.0030313039 -0.0028953862 0.0013184029 0.0002602505 0.004183839 0.0025336663 -0.0013933168 -0.0037989507 0.00021855594 0.0022228686 -0.0013828112 -0.0034341584 -0.0032177735 0.0050054835 0.0047430964 0.00044070728 0.0021867924 -0.00016891437 0.0025468625 -0.0019428587 0.0021750745 0.0023861371 -0.0017372811 0.0019306245 -0.0013599867 -0.0012147321 0.0019443694 -0.0023989112 0.0040663425 -0.0019441544 0.0015956925 0.00029836048 -0.003561564 0.0048632394 0.002410826 -0.00334908 -0.0033861105 -0.0006709076 0.0010496903 0.004627194 -0.0003092651 -0.004276063 0.0012965023 -0.0004192208 -0.0010395058 -0.004758263 0.0027265796 0.0005417511 0.0013774126 0.0006560993 0.0018438619 0.0022504898 -0.0028104382 -0.0038609032 -0.001547716 0.0049690967 -0.0009594179 0.002045685 -0.0013024948 -0.0046576425 0.0024258457 0.0015328373 0.0028045373 0.004846668 -0.0037256465 0.0016759499 0.002285022 0.0037432297 -0.0045403745 -0.0020196994 -0.0022587287 0.0014932557 0.0014609629 0.00039195493 -0.0045277774 0.0013786798 -0.004617499 -0.0008590717 -0.0033362133 6.5377135e-05 -0.0035019382 0.0014451619 -0.004203415 -0.0036299871 -0.0047755446 -0.002952661 0.0024432612 0.0015681032 -0.0003152364 -0.0019464038 0.002411373 -0.0040876786 -0.0011885953 -0.0005300293 0.004498383 0.0008360732 -0.0042834976
说 -0.0021859172 0.00095681567 0.00083322125 0.0018568969 -0.002700606 0.002077458 0.00022766761 -0.0015853442 -0.0029259808 0.0016274102 0.002119997 -0.0024430912 -0.0035911324 0.0049434467 0.004276111 -0.004602958 0.0047893925 0.00068177667 -0.00048694437 -0.0018563434 0.00074173964 0.0025081562 -0.004866331 0.0019420915 0.0024173926 0.0044508884 -0.0040364056 -0.0041623213 -0.0038697538 0.002048017 6.955546e-05 -0.0021857338 0.0044966466 0.0034909246 0.001875067 -5.750046e-05 -0.0040365374 0.0034053992 0.0017649379 -0.002147431 -0.0033873445 -0.0026491836 0.004509439 -0.0008061818 0.0004979183 0.00045704457 0.0043484643 -5.6725916e-05 -0.0040041306 0.00036648125 0.0011674663 -0.004373202 0.0032593326 0.0012018451 -0.0048255417 -0.003293854 0.0033800125 0.003654137 0.001650932 0.0023188267 -0.002399152 -0.0043287035 0.0028252217 0.0020021573 -0.0035386274 -0.004359028 -0.0030173715 -0.0019294046 -0.0004576156 0.0008878877 0.0003051548 0.00075643003 -0.0042695384 0.00014365799 -0.0038362094 -0.0023179846 0.00025334037 -0.00016633884 -0.0027307032 0.0027497318 0.0039784657 0.0009353013 0.002312367 -0.004871015 -0.0027152349 0.0005053057 0.0045091817 -0.0048539476 -0.000666361 -0.0038088106 0.0015027747 0.004895285 0.0010031395 -0.002313587 -0.0028275244 -0.0037620477 -0.00367169 0.004387424 0.0039018912 -0.0024795532
感慨 -0.0042207297 0.0021507686 -1.0442269e-05 0.0034475585 -0.0033505808 0.0039484 -0.0023348336 -0.0027627447 -0.00339934 0.001390354 0.0010338656 0.00014600587 -6.455375e-05 0.0034732313 0.002440193 0.0011101433 -0.0035562378 -0.0039006763 0.0009535123 0.00038972843 0.004606745 -0.0037638885 -0.0045483923 0.0026212733 -0.0003685291 -0.0021896975 0.0030969058 -0.0011469248 -0.0013104167 -0.00081532105 0.002154752 0.0008987772 0.0047548297 0.0038531153 0.0003045332 0.0022031118 0.00041236778 0.0023433121 0.00010144781 0.0026629772 -0.0035901645 0.004786038 -0.0039398996 -0.0047142864 -0.0018701552 0.0027573903 -0.0026723165 0.0013022631 0.0014884939 0.0018391511 0.0012040542 -0.0049139154 -0.0004494529 0.0017769024 -0.0024315643 0.0030873194 -0.004998684 0.0036697588 -0.00034604047 0.0007563503 -0.0015794788 0.003343809 -0.0021512914 0.0033984117 0.001982403 0.0038006704 -0.002019239 0.001610203 0.004859363 -0.00074156374 0.004947358 0.0006727979 0.000500397 0.005019334 -0.0048589534 -0.0031381852 -0.003788574 -0.0047882656 -0.00013629654 0.0012760179 0.0005881235 0.0022961057 -0.0006452758 -0.004078013 -0.00043746014 -0.0042359335 0.00036570462 -0.0022290736 0.0006377755 -0.0013667273 0.003142949 0.00092433573 -0.002537831 -0.00511452 0.002382095 -0.0022652051 -0.0039185504 0.0012689817 -0.003986805 -0.0007921087
去 -0.00037253764 0.0036528376 -0.0021190546 -0.004121438 -0.004580756 0.004236642 -0.004193155 0.0031650024 -0.0022219347 -0.0026798106 -0.00029618674 0.0020231637 -0.0030445058 -0.0017776319 0.00318687 -0.0024239083 0.0035259752 0.0032895755 0.00066863006 0.004412727 0.000522321 -0.0012195322 -0.002707321 0.0042243227 0.005276066 -0.0010908394 0.0043074125 -0.0016854884 0.0025735393 -0.0015273942 -0.0037525361 0.0019131647 0.0020654413 0.0007139705 0.002234611 -8.9106885e-05 0.0010540945 0.0006981813 0.0035521975 -0.0012855765 0.00038751974 -0.0009391735 -0.004357375 -7.518921e-05 -0.00350041 0.0036928153 -0.003482918 0.004048205 0.003035958 -0.0019959616 0.0037434334 0.0018819966 -0.0038802996 0.004606054 -0.00217493 0.004572088 0.0020602827 0.0032759227 0.0012671663 -0.0015754281 2.5965583e-05 0.0022114825 0.0026643565 -0.0033536043 -0.0008960241 0.0047367346 -0.0011160113 -0.0014468613 0.004509523 0.001203695 -0.00025322227 0.0024749865 0.0046615503 -0.0005882584 0.0030235166 0.0045431997 0.0017281843 0.0043890956 -0.00041504536 2.988988e-06 -0.0027181953 -0.0021959727 -0.0008401992 3.6819514e-05 4.726319e-05 -0.0014862465 -0.00015222342 0.0021908695 -0.0013137311 0.0010461174 -0.0012939151 -0.003342853 -0.000381891 -0.00077611266 0.0017881964 0.0025501351 0.00077181763 0.002767085 -0.0007875384 -0.0032304565
国内 0.0027171087 -0.0021821507 -0.0030114497 0.0031700088 0.00018632237 0.0007115911 -0.0018366713 -0.004281788 -0.001341785 -0.0022625919 0.0014264063 -0.0012497423 -0.0021628703 0.0026708397 -0.0033688946 -0.002048405 0.0006030764 -0.0017273555 -0.002652728 0.0023592405 0.0010661492 0.00082413055 -0.0040505813 -0.0018795317 0.0040038484 0.0028982183 -0.0028590495 0.0042115874 0.00396104 0.0024173195 -0.0009662942 -0.000238256 -0.0005668458 0.00040299434 -0.0033297576 0.0010392574 -0.003399561 -0.0015174182 -0.0026050082 0.0036150825 0.0017525422 -0.0022120515 -0.000764304 -0.000438716 -0.0041035283 0.0033240914 -0.0005907211 -0.0028284607 -0.0043400666 0.0017319281 0.002987442 -0.00054239866 0.0040963483 0.003913766 -0.0036698503 -0.0019368909 0.0012790916 -0.0021449635 -0.0015473453 -0.0021699495 -0.00092063023 0.0024438002 0.0026124974 0.0023263663 -0.003403837 0.0028327731 0.0005906392 -0.002845868 0.00041702195 0.0039645676 -0.00064439524 0.0046526147 0.0029795186 0.0029383283 0.0026649323 0.00290827 -1.860675e-05 0.0043262024 0.00469159 0.0009764327 -0.0045128246 0.004134327 0.0025052922 -0.0030315784 0.0031092698 -0.0040289043 -0.0034323 -0.0030556698 0.002609777 0.0030016024 0.0025967357 0.0023044199 -0.0017186361 -0.0007220021 -0.00020215687 -0.0044013187 0.0032467996 0.0048262347 -0.0011534262 -0.0036049592
大家 -0.0023650343 -1.3933374e-05 -0.0015401954 0.0031797686 0.0019569518 -0.0012427665 -0.0003816121 -0.0031674777 -0.004700838 -0.0016172127 0.0013508316 -0.003204007 -0.003484015 0.00070668955 0.0047541037 -0.0014396103 0.0024250338 0.0044829766 0.002850267 0.0024402651 -0.0037649295 0.0004909792 0.0033570146 0.0029114352 0.0037990694 0.0028741232 -0.0049671154 -0.0046259295 0.0037560996 -0.0024300253 -0.00036574356 -0.004162002 0.0030819953 -0.001819295 0.0006788596 -0.0037026808 -0.003713926 0.00480898 -2.2902974e-05 0.0036783486 -0.0011631154 -0.00065682235 -0.0038609167 -0.0018583966 -0.00190824 0.0049344543 0.005036906 -0.00029633078 0.0025669876 0.0036530371 -0.003220441 -0.0045286883 0.0038018355 0.0044146664 -0.0016837684 -0.0044213254 -1.6545577e-05 -0.0016390935 -0.00047641507 0.0036248406 0.0025045516 -0.0031408593 -9.0891044e-05 0.003518727 -0.0039043087 0.00071404595 0.0037215755 0.0031383294 -0.0029621206 -0.0014824579 0.003276868 -0.002292368 0.0025538602 0.0013711527 0.0035868685 -0.0028023303 -0.0019236889 -0.0011104501 0.0038610806 0.002373178 0.0029835068 -0.005075636 0.0022208313 -0.0031194875 -0.001787968 -0.0031332602 0.0014523993 -0.0024148794 0.0037568733 -0.0023308813 -0.003618652 -0.0024324409 0.0028452473 0.0011170303 0.0046215313 -0.00146903 0.0045168023 -0.004280377 0.002734341 -0.0044188485
想 0.0031124651 -0.002166771 0.0040106224 -0.0018921052 -0.003962376 -6.850401e-05 0.0027553213 0.00041703202 0.0022770956 -0.004101446 -0.00063637266 -0.003921614 0.0031994272 -0.0025786865 -0.00468141 -1.4357341e-05 -0.004716047 0.001188053 0.0034883486 -4.5641675e-05 0.002846935 -0.00059284054 0.0036496671 0.00416136 0.0005534914 0.002100321 -3.133875e-05 -0.0021196671 -0.004350771 -0.004373228 -0.0006377222 -0.0023502267 -0.0012573093 0.0003096499 0.0017543392 -0.00086180144 0.004943354 0.0024097306 0.004166538 -0.0043401117 0.0048065577 0.0028729332 -0.0002831679 -0.0046248725 -0.0020370868 0.0034205809 -0.0044875564 0.0033752176 -0.0036265508 0.0010202713 -0.0011391448 0.001771465 -0.0020335275 -0.0025098876 -0.002522211 -0.0005781745 0.0039795036 -0.0049033994 -0.00039427096 -0.0023737398 0.0030536158 0.003097857 -0.0027440803 0.0043751383 -0.0005839926 0.005008161 0.00024566037 -0.0015479397 0.002353473 0.0006000392 -0.004066204 -5.218243e-05 -0.0017751851 0.0046751103 -0.004202434 -0.004246996 0.001163082 -0.003665081 0.0049091987 -0.00030482895 -0.0025174331 -0.00050593534 -0.0035902683 -0.0037215245 0.0038351316 0.0031924332 0.0038073384 -0.00014505273 0.0021593205 -0.0038152253 0.000676517 -0.0036934565 -0.0023277726 0.003421503 0.002789257 4.1140993e-09 -0.003482293 -0.0029736056 -0.001692797 -0.0048130597
时候 0.0047343615 -0.0006655723 0.0008997603 0.00092550827 0.0024876676 -0.0016906105 -0.0017060655 -0.0005177611 0.0047466485 0.0008217104 0.0005882181 0.0022971702 0.0010386816 -0.0041018026 0.0043224273 0.0036324952 -0.0021839254 -0.0006702971 0.0005182811 0.00015842734 -0.0010402821 -0.005020108 -0.0031870091 -0.003931811 -0.0010294972 0.0044073486 0.003718134 0.0027628427 0.0012293779 0.0040686307 -0.0010797761 -0.003965485 -0.0022909255 -0.00011250321 0.0044381013 0.0037030515 0.0043410873 -0.0045398786 0.004361965 -0.00037217175 -0.00027130495 -0.00017396122 -0.0029277175 0.0015552286 0.0025168406 -0.002162176 0.0043330216 -0.00019679929 0.001232622 0.003081906 -0.0021595603 -0.001699256 -0.0015640496 -0.00022046748 -0.00083774095 0.003464753 -0.0038253737 0.0049442244 0.0037429866 0.0038641053 -0.0026609893 -0.0031585353 0.0019318502 0.0039034053 0.00291911 0.004374847 0.0005709442 0.002505822 -0.0044181393 0.0024881086 -0.0014259431 0.0037828444 -0.0016810419 0.001027505 0.0028977192 1.7960765e-05 -0.0007198954 0.0015190941 -0.0047136974 -0.0031961557 -0.0007301427 0.0032667455 0.0033771899 0.00044802146 0.0016605125 -0.0049719373 -0.0016518255 -0.0045577283 -0.0022846872 -0.0024667303 -0.00404298 -0.0036033664 -0.0037313844 -0.0005385781 -0.0025648852 0.0017646737 0.0025485791 -0.00422166 0.00067403715 0.0017517359
能 0.0027668104 0.0037060685 0.0022611246 -0.00060774735 0.004910178 0.0011045607 0.004900008 -0.0047438117 -0.0041194805 -0.00041234857 0.0032631403 0.004528846 -0.0026768378 -0.0015743206 -0.0009198047 0.0013093746 0.004491778 -0.003812211 0.0017575531 -0.003655277 0.004406457 -0.00065583317 -0.00042632493 -0.0019576643 0.0042888084 0.0008208361 -0.0026368834 -0.00092909177 0.0014877004 -0.00015940235 -0.0042714537 0.0017770611 0.0027671386 0.00023848876 0.0037812802 0.0043134964 -0.0023298815 0.0005125194 -0.004125919 -0.0029119072 0.0023588145 -0.003473622 0.0010614378 -0.0041893353 0.004790952 0.0032820925 0.0045931987 0.00073685375 -0.004928049 0.0040815207 -0.0012342696 -0.0032155956 -0.000982948 -0.00096926244 0.0008052133 0.00036406927 0.00054481986 -0.0036026582 -0.0011191552 -0.0013310751 0.001537573 0.0028137746 -0.0020531826 0.0011693812 -0.0024867032 -0.0026994583 0.00064622826 0.0043132915 -0.0016394495 0.00026099585 0.0023720863 0.0017099428 0.0016824219 0.005055239 0.004657899 0.0040021134 0.00082506903 -0.003559516 -0.0012532538 0.003864685 -0.0031947463 0.0035264494 -0.0016850133 0.0025388831 0.0011253273 -0.0041617467 -0.0038200668 0.0042636716 0.0010712048 -0.0028208508 -0.0038425466 0.00070975977 0.004089348 -0.001263137 0.0009974357 0.0026714285 0.0038208277 0.0041897944 -0.0029317485 0.0018023049
喜剧 0.0035006679 -0.00014857347 -0.0012610693 0.004343988 -0.0035971429 -0.0034009346 0.0025835114 -0.0018087594 0.0019753354 0.0037881357 0.0044648396 0.0021539293 -0.0013030262 -0.0040419777 -0.003609547 -0.00096916687 -0.0017973442 0.0026291956 -0.0008698095 -0.0046769776 0.0025174804 0.0012729532 -0.0009858119 0.0021038342 0.0021281387 -0.00030679427 0.0046023345 -0.002679262 -0.0028306325 0.0043498185 0.0016327725 -0.00014302351 -0.0026586393 -0.0019938229 0.0031986656 -0.0037145372 -0.00468005 0.0041542407 0.0017221429 -0.0026578766 0.00453589 -0.0025595902 0.0037216546 0.0011483075 -0.00030050598 -0.004484336 -0.0025900255 -0.00015755501 0.0012689384 -0.0023048338 0.002882883 -0.0021362575 0.0048126588 -0.0047862153 -0.00016688883 0.0013296802 -0.0019288281 0.0008626316 -0.002772494 -0.00036330143 -0.003461473 0.0031963445 0.0018477055 -0.0005745307 -0.0037782465 -0.0027365787 0.00039532784 0.0036262337 -0.0040559177 -0.0011159393 -0.00030700795 0.0021491775 -0.0036798683 -0.0018993539 -0.0008514193 0.002083348 -0.0044799275 -0.0040519554 0.003195211 -9.0351365e-05 0.0009042958 0.00029130437 0.0020302883 4.6023164e-05 0.0042005815 -0.00242873 0.003315851 -0.0012655674 -0.003713559 -0.0018523987 0.0022997 -0.0029992962 -0.0037282903 0.0038400167 -0.0009437776 0.0014456832 -0.0008329557 0.00046392265 -0.0033396804 0.003934215
台词 -0.00311608 -0.0045319744 -0.0026512658 -0.0017125389 0.0019033239 -0.0021828746 0.0041713933 -0.0009902227 0.0031796654 -0.0017340864 -0.0036276495 0.0011663339 0.0023779864 -0.0015368082 0.0035884352 0.0011279829 0.0045294194 0.004828876 0.0034285865 -0.00062640273 -0.0022047672 -0.0037785391 0.0004312991 -0.002325148 0.0030803916 0.002732894 -0.004223439 0.0036036668 -0.004123495 -0.0027267043 -0.0031893796 0.004176286 -3.0689815e-05 -0.002949689 0.0004651976 0.0033402308 -0.0031652695 0.0035076702 -0.0048146322 0.0009547659 -0.0002066844 -0.0024478268 0.0016016426 0.0006163563 0.004852271 0.0017462038 -0.0009837496 -0.0023618657 -0.0031055484 0.0012258943 -0.0005037239 0.0015991239 0.0010660484 -0.00020190475 0.0020336534 0.0029749833 -0.0043412577 -0.003602943 -0.0023193643 0.0026241255 -0.0031993927 0.003207818 -0.0038032369 -0.0021449097 0.0038726374 -0.00023114051 0.003254359 0.0031534834 0.0032305722 0.0036217293 -0.0012127521 0.0010483876 2.722054e-05 0.0047666538 -0.0028076265 0.003425568 0.005104093 -0.0030923085 0.0035974132 0.0011319588 0.00019638134 -0.0041270987 -0.0009430289 0.0049204263 -0.0009538725 -0.00040472264 0.0011054997 -0.004604648 0.0004300317 -0.0005177991 -0.00205621 -0.0014570364 -0.0031710293 0.0006844988 -0.0013857433 -0.004329262 0.002625211 -0.0028271498 0.00067800627 0.003707518
巴音 -0.0006073976 -0.0010017313 0.0024823116 0.00038146638 0.0011085431 0.0015689865 -0.00068676856 -0.0023225858 -0.0033970876 -0.005026352 -0.0013130788 -0.0023778854 0.0039089844 -0.0038361493 -0.0015106712 0.0014777968 -0.0020760729 -0.00055482396 0.0005446192 -0.0051296507 -0.0019045835 -0.0042643747 -0.0013016923 -0.0027595835 -0.0007703824 0.0017290388 0.0044547427 0.0022251578 0.0017050365 0.0016863393 0.0032601776 9.553413e-05 -0.0011486856 -0.004513685 0.0035270276 -0.004750371 -0.002871525 0.00071745564 -0.0020740458 0.0033754436 0.0051101493 0.0010893319 -0.0025617783 0.0031226946 0.0011797897 -0.001780569 -0.0034526396 0.0013668896 0.001111629 0.0010455896 -0.0010331866 -0.004038809 -0.0003121376 0.0026593558 -0.0013837039 -0.0028103201 -0.0002852999 -0.0037052967 -0.0020529816 0.0022739794 -0.004321659 0.0005494242 0.0026069693 -0.0024522701 0.0023746414 0.0021003124 0.0037484698 -0.0033596745 0.0017448142 0.0003803791 0.0014961303 0.0048689498 0.0014971901 -0.0005431879 0.0049103918 -0.0031711913 2.9821571e-05 0.003847919 -0.005089355 -0.0029385898 -0.0015006041 0.003637759 -0.00037156633 0.0048317197 -0.0023151077 -0.005064857 -0.0004888041 -0.0005025486 -0.00224201 0.0022388105 -0.00047674568 -0.0004609897 0.002121473 -0.001118413 0.0021051331 -0.0027637612 0.0012794388 -0.0028632178 -0.0033626638 -0.0029769551
还是 -0.0017900432 -0.0020254883 0.0031084875 -0.0042396183 -0.0032633257 0.000574959 -0.0016585354 0.0002469604 -0.0018891727 0.00032304146 0.0018810098 -0.0030384231 0.004296749 -0.0012139227 -0.0009163854 0.0020510745 -0.0016364052 0.00088910933 -0.002787887 0.0015098986 0.0003809876 -0.00060735794 0.002272484 0.0026957907 -0.002003999 0.0048415205 -0.004497354 -0.0010374981 0.004844481 -0.0036291925 0.0042369915 -0.00013504269 -0.0004090807 0.0020774438 0.0036446766 -0.004225841 -0.0019370285 0.0019983687 0.00081914524 -0.0029666 0.0035370782 -0.00016793978 -0.0032181796 0.0009636782 0.0026825522 0.0032043373 0.004044343 0.00019663836 -0.0045095026 0.0051035946 -0.0011769825 0.0035858206 0.0030125561 0.0037088871 -0.0016770625 0.0014870381 -0.0044234567 -0.00093818316 0.003583962 -0.0013478992 -0.0011029156 0.0034150686 0.0005633205 0.00036858016 0.003882988 -0.00023631706 -0.0047726217 -0.004500786 0.0045081577 0.0046540448 -0.002053694 -0.0023184961 -0.0023404404 -0.0035073543 0.0035661333 0.0008887972 0.004447733 0.0044072103 -0.002530563 -0.00043714477 1.4351389e-05 0.003462654 -0.004813534 -0.0039156736 0.00020573418 -0.0022169258 -0.0024132498 -0.0030602345 -0.002200189 0.0029372484 -0.004631414 0.00038205698 0.001314855 0.00012827959 0.0012522213 0.0007398675 0.00051699864 0.00010902316 0.0011056606 0.0035597368
没有 0.0021364181 -0.0021464638 0.003694846 -0.0022511715 0.003523168 0.0015173 0.0017027865 -0.002969801 -0.00048508207 -0.00057798036 -0.004202143 -0.0009760668 0.0037763205 0.0022720976 0.002038939 -0.004963487 0.0009822601 -0.0005321364 -0.0031394488 -0.00336919 0.0039800666 0.0019294844 0.0009880068 -0.00037429947 -0.0033080082 -0.0016092743 0.0026967293 0.0022956643 0.0038321975 -0.0046074046 0.003930081 -0.0044119544 0.004798959 -0.004955452 -0.0012044477 -0.00037688212 -0.00067315914 0.004710098 -0.0017712119 0.0008449181 0.0035062358 0.003901153 0.0031117299 0.0035017333 0.0028712237 0.0026030962 -0.0004645512 0.0026458139 -0.00024306371 -0.00048180384 -0.0049328916 0.0035346476 0.000564271 0.0050357077 0.0019996974 -0.0019672317 -0.0042566704 -0.00084930105 -0.0018400567 0.0038535018 -0.00016920803 0.001257747 -0.00083213655 0.004479832 0.0018822881 -0.00183576 -0.0026773263 -0.0032311194 -0.003912279 0.0016260542 -0.0037478143 0.0018948079 -0.0020246988 -0.003936149 -0.0046829716 0.0010585005 0.002400887 -0.0019393603 -0.0047716196 0.003889494 -0.0035908213 0.0020683387 0.00035501673 -0.004865607 -0.0019948874 0.0005058552 -0.0032854837 0.002343446 0.00069249026 -0.002560355 -0.00072039815 0.003602563 -0.004634668 0.002859313 -0.004849214 0.004518109 0.004347385 -0.0033871736 0.0026152255 0.004538355
笑点 0.00049144187 -0.0012502869 0.003822623 -0.001558719 -0.00060889486 -0.0023874128 -0.0013592226 0.004644317 0.0031062353 0.0015645805 0.003959931 -0.0033196767 -0.0027963952 -0.0024135704 -0.0006226472 0.0006983758 0.00069375115 -0.00019738407 -0.004429186 0.0038737247 0.002627577 -0.00391324 0.0012152953 0.0051425034 0.0007617441 0.004090185 -0.002897758 0.0035491323 -0.0030730143 0.0032879654 -0.0014950905 0.0028349345 0.004560029 0.0036339555 0.0023608326 -0.0022055383 0.0007550569 0.0010185771 -0.0012849894 -0.001146664 0.00083783455 -0.0045273127 -0.003033085 0.0024715434 -0.004033241 -0.002448387 -0.004680936 0.0041749827 0.0010784012 -0.0009737873 -0.002632235 0.0032376323 0.0021480857 0.0023343766 0.0035912108 0.0007453496 -0.004883209 -0.0033084804 0.0044444907 -0.002995914 -0.0029794502 0.0036288544 0.0026475044 -0.0037931758 -0.0017198643 -0.003440473 0.0026281304 0.0014532534 -0.004031606 0.002592584 -0.00078416977 -0.0026090275 0.001375276 0.0029843424 -0.0043890965 -0.0034847169 0.0026272435 0.0010107832 0.0031517192 0.002703335 -0.0049806745 -0.0007456893 0.0021425264 0.0020511418 -0.0001990678 -0.0029084284 0.0047688494 0.003436846 -0.0013043049 -0.0012489861 0.0014902578 0.003926504 -0.003373556 0.000422009 -0.004836674 0.0011095065 -0.003639723 -0.0044891196 0.002669415 0.0025464336
幽默 0.0013807846 0.0019590014 -0.0048121046 -0.0043784585 0.0006039083 -0.0049349815 0.0048365984 0.003097217 -0.0019852153 0.0022135538 -0.003356569 0.0021949094 0.004135558 0.0020215611 -0.0043003443 -0.0016693557 -0.0031645468 0.0013944062 -2.468551e-05 -0.005083857 0.0036074012 -0.0034678683 -0.00042189416 0.0026988427 -0.0019002722 -0.0018960409 0.0041362513 -0.003365679 -0.0021888553 0.0033805894 0.0013051619 -0.0039361645 0.00016509804 0.00021905993 0.0023467967 0.004470926 -0.0047490457 0.0019724728 0.0014995717 -0.0035193271 0.0037257636 0.0009833286 0.0048795748 -0.00306605 0.0024255726 -0.0018570591 -0.00442831 -0.0043478194 0.00031781278 -0.0042898655 0.0025858453 -0.002046232 -0.004793712 -0.0031138624 0.00056143367 -0.0019695894 -0.0021688645 0.0021169006 0.0010939175 -0.0014393069 0.0027289498 -0.002562131 -0.0036529785 0.003082038 -0.003152887 0.0030264554 -0.004107816 0.0022764616 0.00010105632 -0.0039318237 0.004817034 -0.002446366 -0.004832231 -0.0035923 -0.0037517187 -0.00218969 0.0042005717 -0.0019739624 0.003996499 0.0020413713 -0.0013528154 -0.0018179766 -0.004665421 0.002990749 0.0044710804 -0.0048045004 -0.002983375 0.003313385 4.4815515e-05 0.0026027614 -0.0035449644 -0.0030712225 -0.004738953 -0.00091073755 0.0043144394 0.0047208094 0.0037267103 0.003972366 0.0035896269 0.004385912
一种 0.0017351706 0.0045705317 0.0020009235 -0.0010355556 0.004016438 -0.0019050373 0.0025976193 -0.004651729 0.00020630899 0.0047083944 0.0032771968 0.0046747625 0.0043251757 -0.0012439316 0.002834526 -0.0028615901 0.0020290469 0.0037209773 -0.0016948752 -0.0050775865 -0.0012987205 -0.003631128 -0.0020945831 0.0016172758 -0.003211223 0.0016868346 -0.0027285249 0.0016302101 0.001658192 -0.0043143714 0.003099779 0.0016848892 0.0024181604 -0.0026547746 0.0042220685 -0.0011269371 0.0007434949 0.002490668 -0.0035533358 -0.0041748774 -0.004273458 0.00024150901 0.0013132894 0.0037474239 -0.0031021158 0.0038262305 0.0032861456 0.0022879147 0.002279603 0.0041453913 -0.0023555441 0.0005338613 0.001865445 -0.004487236 -0.0017849561 -0.0023117661 0.0042696525 0.0023470803 0.0043592392 0.004455051 0.004573904 0.003674078 -0.0035837544 0.0028981366 -0.0006189978 -0.0039549004 0.004436857 0.0014730216 0.0013556712 -0.0017328935 -0.0011092043 -0.004911352 3.6233534e-05 0.00452909 0.004398566 0.003361869 -0.0043664053 -0.0024483271 0.0035991538 -0.0033145885 -0.0022500402 -0.0042726155 0.0034953523 -0.0028688542 0.0003357097 -0.0035433164 -0.00071691046 -0.0032670735 0.00325627 -0.0013448412 0.00089585816 0.0049102134 -0.00065609545 0.004523255 0.0011399144 0.0036044703 -0.004163907 0.0008748622 -0.00021363536 -0.0035554278
比 -0.00021636573 0.0013208557 0.002256031 -0.0012964705 0.004095217 -0.001130174 -0.0028421066 -0.00042672892 0.002389825 -0.0009886968 0.0015007434 -0.004186035 0.0031944723 0.00068358716 0.0040327916 0.0027619454 -0.0032699965 -0.0001639877 -0.0043606698 0.0046358914 0.0049004112 0.0043071555 -0.0050165565 -0.001732104 0.0014295519 -0.0024861936 -0.00044234548 0.002250782 0.0033658796 -0.0047621084 -0.0036617247 -0.0023009726 0.00039454454 0.004937029 0.0004764829 0.003080763 -0.00029603034 -0.0042213774 -0.0038495555 0.0018731182 0.0011912188 -0.0031711317 0.0014746368 0.0029067092 -0.000612632 -0.0017093678 0.0006939655 0.003958643 -0.0023295123 0.0023996755 -0.00082787365 -0.0030713768 0.00449203 0.0041045398 0.0020873703 0.003211289 -0.0012753153 -0.003974222 0.0043166396 -0.004634736 0.00065459363 0.00078071887 -0.003930806 0.0011699671 -0.0033967542 -0.0031934811 -0.0047905785 0.0010891323 -0.0028669888 0.0020794063 -0.0034949838 -0.0039040572 -0.0022655919 -0.0025352782 0.0037134246 0.0011735071 0.0018651844 -0.0012740868 0.0036760503 -0.0046389946 -0.0046259006 -0.0051211067 0.0034173776 8.0666694e-05 0.0037947153 -0.0022563525 -0.001772295 0.0046223593 -0.0002725468 -0.0022492898 0.0045922636 0.0032318127 0.0022832397 -0.0017827033 -0.0040329397 -0.00089561875 -0.0042156987 0.0014946909 0.0044147167 -0.0034271684
故事 0.0025547366 0.00080637913 0.002696196 -0.0010500449 -0.0022798895 -0.00037069837 0.0017687285 0.004919234 0.004058125 0.0047910586 -0.00465078 0.0032946535 0.0027993582 -0.0031536117 0.0005641237 -0.0022943562 -0.0045943977 0.0049944096 -9.5653e-05 0.0023861383 -0.0044220197 0.0030079044 1.5868682e-05 -0.000659265 0.0039306334 -0.00043282236 0.0009012658 -0.00086284545 0.0042007477 0.0008037945 0.0007869558 0.0007308622 -0.0029640151 0.0021229517 0.00068583904 0.0006795619 0.0011683046 0.0018121284 -0.004593137 0.0030483885 0.00015888664 0.0017109283 0.0023356741 0.0035134654 -0.0047381986 -0.004901024 0.00091966556 -0.0020481753 -0.00071190303 0.0037442832 -0.0007562301 -0.000561058 0.0039810794 -0.0018580408 0.0026783156 -0.0035511095 -0.004274341 -0.0019553427 0.0006424898 0.0025962591 0.0047001485 0.0003830465 0.0030554924 0.003935606 0.0018141263 -0.0012638251 0.004471782 0.003771243 -0.0040096426 -9.789381e-05 -0.0020675606 -0.0031189583 -0.0040329485 0.004883749 0.0038983792 -0.0042705615 0.0039046437 0.0034160127 0.003025496 -0.0046302765 -0.0041944315 -0.0026337772 -0.0016972185 -0.0034991137 -0.00155704 0.0038621277 0.0040753703 0.0046909237 0.0011646933 0.0011139893 0.0032232197 0.0014327575 0.00046709322 -0.0047913953 -0.0021174257 0.001179789 0.0025697392 0.0010043401 -0.0017027917 -0.001936407
搞笑 -0.002088294 -0.0046347943 0.0012777797 -0.0019311133 0.0019249117 -0.0012779497 -0.00033380784 -0.0049581826 0.003099998 -0.0047546597 0.003948676 -0.0041752807 -0.0016262814 -0.0035997275 0.004821463 -0.0042570382 0.0046502757 0.0038911216 0.005018272 0.001016614 -0.0016157881 -0.0043610246 -0.00096712285 -0.0011289393 0.0049953167 -0.0046338225 -0.00451089 -0.00047940834 0.0035373431 0.00067380123 0.00071187725 -0.00433052 -0.004286554 -0.0045627914 -0.0016444486 0.0023065596 0.003608893 0.003922616 0.002989689 0.0044010123 -0.004391388 -0.00068316975 0.0018419871 -0.0038917137 -0.00028425915 0.0043561235 0.0032464138 -0.0033991174 0.0037572011 0.0003764248 0.0039992845 0.0013938997 0.004288772 -0.00038977384 -0.0044238176 -0.001648199 -0.0019163805 0.0036735556 0.0030485285 -0.0035846054 -0.0048271967 -0.0019295482 0.0020730442 0.004097612 -0.0022439763 -0.0037884188 0.0026952447 -0.0030240472 -0.0027037414 -0.000774249 0.00072468375 0.000981371 0.0016070957 -0.0038132146 0.0010417539 -0.00015542017 -0.0046832324 -0.0022469512 0.0037137452 0.0032934563 0.0013370508 0.0014770451 0.00078660116 0.002290415 -0.0009663367 0.0021149504 0.0023843653 0.0004250053 -0.0019332947 0.0022013446 0.0015080716 0.0018920505 -0.002054068 -0.0020797357 0.0033940591 -0.001884825 0.0013152468 0.0013868797 -0.0049249455 0.0010670726
结局 -0.0032945445 -0.0045431196 -0.004866473 0.002119318 0.0040707183 0.004823228 2.9679173e-05 -0.0026916398 0.0039506033 -0.0036286018 -0.00218205 -0.0024596474 0.0015513306 -0.0023895178 0.0017222177 0.00048505043 -0.0014250936 -0.00193782 0.0015228415 0.004665902 -0.0021028272 0.0047450433 0.004256687 0.0029012314 0.0023169701 -0.0040279934 0.003268629 -0.003661155 -0.0026409894 0.001061147 0.0012812677 0.0043702587 0.0030358792 0.004074096 -0.004402761 0.0010544684 0.0032844944 -0.0028849482 0.0012047461 0.0028963946 -0.0038120437 -0.0048980345 -0.0025542935 -0.001259072 -0.0003330273 -0.0036787598 0.0027086206 0.0012751181 -0.0017373627 -9.946474e-05 8.6628876e-05 -0.0017132207 -0.0026991335 0.00013862517 -0.003551541 0.0023865197 -9.9953155e-05 -0.0012665641 8.885533e-05 -0.0033701784 0.0008469549 -0.004297929 0.0046428004 -0.001131937 -0.003961271 -0.0049460614 -0.0039781793 -0.0005172722 -0.0010233875 -0.0016075668 0.0023462481 -0.0019079515 -0.001441696 0.0048789 -0.003187711 0.0039940313 0.0037869264 -0.0017496898 -0.00053055753 0.0016193842 0.0015523463 -0.004934158 -0.0006169052 0.0008207334 -0.0039293123 0.0028023238 0.0028615224 0.003288691 -0.0034208447 -0.0048042038 0.0029750515 0.0033096652 0.0047084074 0.00095484854 0.0027835532 0.0045167846 0.003931579 -0.0031739369 -0.0022683272 -0.0007650697
出乎意料 0.0010799615 -0.004218721 0.004784648 -0.0019231656 0.0016196063 -0.00070305314 0.00013270024 0.0019770053 -0.0017978967 0.000704128 0.0040220874 -0.0030711545 0.004225227 -0.0029842646 0.0020715685 0.0021505253 0.0046124454 -0.0022148013 0.00092170667 -0.0030713158 0.00513226 0.0020290345 0.004227923 -0.0014520865 -0.0027836175 0.0015130707 0.0013678592 -0.0046265367 0.00034647313 0.0027298783 -0.0044737733 -0.0031475935 0.0041944184 -0.0036546378 -0.0016879942 -0.00065938884 0.0013211276 -0.0048662294 -0.0037232672 0.0025807049 -0.0023536435 0.00069785793 -0.0024611277 0.0014961769 0.0027535004 -0.0037047032 -0.0026397042 -0.002741653 0.0012839276 0.002615636 -0.0036972654 -0.001410938 0.0008308986 0.0008996632 -0.00041395417 0.0033190567 0.004636676 0.004451882 0.0033055788 -0.001390449 0.0008393265 -0.0028739618 0.0017317972 0.003961633 0.0039809216 -0.00014419621 -0.004376644 -0.0020805942 0.0016176504 -0.001216915 2.9618961e-05 -0.0027909484 0.0029969043 -0.0029746538 -0.0028259503 -0.003620856 0.004255207 -0.002213729 -0.00458902 -0.0020274066 0.00096183625 0.0036316612 -4.501082e-05 0.0009254203 -0.0032189179 0.003216499 -0.0021310726 0.0036760203 -0.003835549 0.00021912342 -0.0048904493 0.00046250538 0.0046331054 -0.0027889016 0.0028273494 -0.003466033 0.0013977566 -0.003595282 -0.0006521871 -0.0012806325
全国 0.00020304538 0.0012928941 0.0023829415 -0.003479051 0.0039854203 0.0049739107 0.0018282931 0.00019212901 -0.00013866635 0.0016951793 -0.004320249 -0.003678601 0.0037348822 0.0026389614 0.00357347 -0.0015429733 -0.004794526 0.0036747272 -0.0035861144 0.0025124038 0.0012111783 0.003734981 -0.0004007048 0.0033400906 0.004294326 -0.00091733027 0.003043127 0.004874234 -0.004231154 -0.00253383 -0.0026976427 -0.0019292656 -0.003313704 -0.0005162508 0.0026792332 -0.003344559 0.003068879 -0.00063364464 0.0028819086 0.0013650754 0.0034963486 0.00096995523 0.0046654707 0.001448874 -0.0023717026 0.0006135071 -0.0025258365 0.000254683 0.0035490622 -0.0030358988 -0.0027688239 0.0025425146 0.0035247277 -0.000952908 -0.0015827697 -0.003227828 0.0043811765 -0.004893068 -0.0048927674 0.004370208 -0.0025428939 -0.0040019 0.002095826 0.0013708232 -0.004192635 -0.000100012185 0.0021494802 0.0019845886 -0.003035294 0.0044095363 0.0049825255 0.00080075325 0.0008360945 0.0012251956 0.0028565405 0.00036513116 -0.0016734344 0.0031421992 0.0001978363 0.005025886 -0.003436768 0.0029195498 -0.0024104754 0.0027890436 0.0019005797 0.002831333 -0.0031868068 -0.0019009841 0.0027569528 -0.003985785 0.0031651387 0.0046075024 -0.0038939095 -0.004867191 -0.0045583807 0.0041484297 0.0018603674 0.0014359908 -0.0009693971 0.00069037976
就算 -0.0010137713 -0.0019256262 0.004042054 -0.0043743104 0.0034382825 0.003112252 0.0012074262 0.0019099365 -0.0035322448 0.003085993 0.0020789204 0.0021045571 -0.0037458239 0.0009756704 -0.0034323703 -0.0034923707 0.0038287637 -0.0031083324 -0.003768131 0.0019432919 0.0038404511 -0.0018439054 -0.0046604704 0.0016629302 -0.00054486684 0.002014141 0.0041517424 0.00091447576 -0.0046572518 0.0029751705 -0.0037145452 -0.0009967411 -0.002504821 -0.0028377653 0.00449172 0.004665345 -0.002525366 -0.0031816892 -0.0024375932 -0.00273462 -0.0039458745 -0.0014142966 0.0026150148 -0.0010873129 -0.0026231047 -0.0031525567 0.0039203106 -0.0010294073 -0.0015745123 -0.0014926175 0.00035239014 0.0028209495 -0.0029723577 0.00053318817 0.002466192 0.000562246 0.004258874 -0.0025499107 -0.0021827163 -0.0036923378 -0.0014390061 0.0010934274 -0.0029470397 -0.00391807 -0.001197786 0.0032829477 -0.0007105794 -0.002185671 -0.0007874508 0.004348791 0.0011249866 0.0043088472 0.0044885464 0.0023827963 -0.0018193185 -0.0048107044 0.0007191978 -0.002111305 -0.0009916715 0.0042305174 0.004671919 0.0024362588 -0.003991013 -0.0041337335 0.004734686 -0.0032760547 0.0018436821 0.0027518133 -0.001968412 -0.0007576652 0.002724321 0.0040626717 -0.00047250008 -0.00067832053 -0.0022970461 0.0047806487 0.0042230203 -0.0010997348 0.0024672723 0.0034889434
